<?xml version="1.0"?>
<opencv_storage>
<cascade>
  <stageType>BOOST</stageType>
  <featureType>HAAR</featureType>
  <height>20</height>
  <width>20</width>
  <stageParams>
    <boostType>GAB</boostType>
    <minHitRate>9.9500000476837158e-01</minHitRate>
    <maxFalseAlarm>5.0000000000000000e-01</maxFalseAlarm>
    <weightTrimRate>9.4999999999999996e-01</weightTrimRate>
    <maxDepth>1</maxDepth>
    <maxWeakCount>100</maxWeakCount></stageParams>
  <featureParams>
    <maxCatCount>0</maxCatCount>
    <featSize>1</featSize>
    <mode>BASIC</mode></featureParams>
  <stageNum>25</stageNum>
  <stages>
    <!-- stage 0 -->
    <_>
      <maxWeakCount>14</maxWeakCount>
      <stageThreshold>-1.0698573589324951e+00</stageThreshold>
      <weakClassifiers>
        <_>
          <internalNodes>
            0 -1 462 5.4937299864832312e-05</internalNodes>
          <leafValues>
            -4.6598640084266663e-01 5.5587118864059448e-01</leafValues></_>
        <_>
          <internalNodes>
            0 -1 462 8.8829174637794495e-04</internalNodes>
          <leafValues>
            3.7022310495376587e-01 -7.6430952548980713e-01</leafValues></_>
        <_>
          <internalNodes>
            0 -1 471 4.0902828914113343e-05</internalNodes>
          <leafValues>
            -5.6804102659225464e-01 1.9564887881278992e-01</leafValues></_>
        <_>
          <internalNodes>
            0 -1 533 2.4966849014163017e-04</internalNodes>
          <leafValues>
            2.1165354549884796e-01 -6.8940830230712891e-01</leafValues></_>
        <_>
          <internalNodes>
            0 -1 140 3.0132882297039032e-02</internalNodes>
          <leafValues>
            -1.9774028658866882e-01 5.6385707855224609e-01</leafValues></_>
        <_>
          <internalNodes>
            0 -1 111 -3.4289598464965820e-02</internalNodes>
          <leafValues>
            6.9762790203094482e-01 -1.7787246406078339e-01</leafValues></_>
        <_>
          <internalNodes>
            0 -1 535 -4.6173992450349033e-04</internalNodes>
          <leafValues>
            -5.9122610092163086e-01 2.1803098917007446e-01</leafValues></_>
        <_>
          <internalNodes>
            0 -1 625 8.3854080003220588e-05</internalNodes>
          <leafValues>
            -3.7772542238235474e-01 2.5037240982055664e-01</leafValues></_>
        <_>
          <internalNodes>
            0 -1 9 -5.1322281360626221e-03</internalNodes>
          <leafValues>
            4.6965244412422180e-01 -1.8065087497234344e-01</leafValues></_>
        <_>
          <internalNodes>
            0 -1 9 4.1328007355332375e-03</internalNodes>
          <leafValues>
            -1.8629124760627747e-01 4.8154577612876892e-01</leafValues></_>
        <_>
          <internalNodes>
            0 -1 468 3.0887138564139605e-04</internalNodes>
          <leafValues>
            1.8119701743125916e-01 -5.1948088407516479e-01</leafValues></_>
        <_>
          <internalNodes>
            0 -1 620 -1.6788360881037079e-05</internalNodes>
          <leafValues>
            -4.3510556221008301e-01 1.6511961817741394e-01</leafValues></_>
        <_>
          <internalNodes>
            0 -1 454 2.2542959777638316e-04</internalNodes>
          <leafValues>
            1.5502318739891052e-01 -4.6999171376228333e-01</leafValues></_>
        <_>
          <internalNodes>
            0 -1 41 -3.6538438871502876e-03</internalNodes>
          <leafValues>
            3.8342803716659546e-01 -1.9343309104442596e-01</leafValues></_></weakClassifiers></_>
    <!-- stage 1 -->
    <_>
      <maxWeakCount>15</maxWeakCount>
      <stageThreshold>-8.9876908063888550e-01</stageThreshold>
      <weakClassifiers>
        <_>
          <internalNodes>
            0 -1 397 4.8637812142260373e-05</internalNodes>
          <leafValues>
            -4.3148687481880188e-01 5.9384310245513916e-01</leafValues></_>
        <_>
          <internalNodes>
            0 -1 537 7.4180548836011440e-05</internalNodes>
          <leafValues>
            -5.4669547080993652e-01 3.2137584686279297e-01</leafValues></_>
        <_>
          <internalNodes>
            0 -1 537 7.0260860957205296e-04</internalNodes>
          <leafValues>
            2.6767224073410034e-01 -6.8827056884765625e-01</leafValues></_>
        <_>
          <internalNodes>
            0 -1 157 -3.8588795810937881e-02</internalNodes>
          <leafValues>
            4.7689399123191833e-01 -2.4887505173683167e-01</leafValues></_>
        <_>
          <internalNodes>
            0 -1 459 3.8144242716953158e-04</internalNodes>
          <leafValues>
            1.6018638014793396e-01 -6.9265919923782349e-01</leafValues></_>
        <_>
          <internalNodes>
            0 -1 479 1.0821322211995721e-04</internalNodes>
          <leafValues>
            -4.1547840833663940e-01 2.0916460454463959e-01</leafValues></_>
        <_>
          <internalNodes>
            0 -1 193 2.4367084726691246e-02</internalNodes>
          <leafValues>
            -2.6461744308471680e-01 4.5676487684249878e-01</leafValues></_>
        <_>
          <internalNodes>
            0 -1 470 -1.6589902807027102e-03</internalNodes>
          <leafValues>
            -8.5801702737808228e-01 1.5645872056484222e-01</leafValues></_>
        <_>
          <internalNodes>
            0 -1 132 -2.3753839731216431e-01</internalNodes>
          <leafValues>
            -8.2944387197494507e-01 7.1862101554870605e-02</leafValues></_>
        <_>
          <internalNodes>
            0 -1 353 6.6365988459438086e-05</internalNodes>
          <leafValues>
            -4.0076515078544617e-01 1.8326379358768463e-01</leafValues></_>
        <_>
          <internalNodes>
            0 -1 82 -2.3498825728893280e-02</internalNodes>
          <leafValues>
            5.4459208250045776e-01 -1.8677641451358795e-01</leafValues></_>
        <_>
          <internalNodes>
            0 -1 81 2.2074487060308456e-02</internalNodes>
          <leafValues>
            -1.7591595649719238e-01 4.5579153299331665e-01</leafValues></_>
        <_>
          <internalNodes>
            0 -1 353 9.5518922898918390e-04</internalNodes>
          <leafValues>
            2.1515452861785889e-01 -4.3872460722923279e-01</leafValues></_>
        <_>
          <internalNodes>
            0 -1 129 1.5573522448539734e-01</internalNodes>
          <leafValues>
            8.4198161959648132e-02 -8.2333534955978394e-01</leafValues></_>
        <_>
          <internalNodes>
            0 -1 568 -3.6134438123553991e-03</internalNodes>
          <leafValues>
            3.4938827157020569e-01 -2.3702001571655273e-01</leafValues></_></weakClassifiers></_>
    <!-- stage 2 -->
    <_>
      <maxWeakCount>18</maxWeakCount>
      <stageThreshold>-9.0021717548370361e-01</stageThreshold>
      <weakClassifiers>
        <_>
          <internalNodes>
            0 -1 462 6.6956548835150898e-05</internalNodes>
          <leafValues>
            -3.9579349756240845e-01 5.0849795341491699e-01</leafValues></_>
        <_>
          <internalNodes>
            0 -1 464 1.6741986619308591e-03</internalNodes>
          <leafValues>
            2.5758746266365051e-01 -6.9428795576095581e-01</leafValues></_>
        <_>
          <internalNodes>
            0 -1 538 2.6280552265234292e-04</internalNodes>
          <leafValues>
            1.9033287465572357e-01 -5.5241632461547852e-01</leafValues></_>
        <_>
          <internalNodes>
            0 -1 538 -2.1561805624514818e-04</internalNodes>
          <leafValues>
            -5.2700233459472656e-01 1.9809567928314209e-01</leafValues></_>
        <_>
          <internalNodes>
            0 -1 23 -1.1820837389677763e-03</internalNodes>
          <leafValues>
            4.4646194577217102e-01 -2.3739916086196899e-01</leafValues></_>
        <_>
          <internalNodes>
            0 -1 463 1.9439200696069747e-04</internalNodes>
          <leafValues>
            1.9019262492656708e-01 -4.7555246949195862e-01</leafValues></_>
        <_>
          <internalNodes>
            0 -1 74 -1.9537959247827530e-02</internalNodes>
          <leafValues>
            4.3764954805374146e-01 -1.9673535227775574e-01</leafValues></_>
        <_>
          <internalNodes>
            0 -1 64 -4.0134545415639877e-03</internalNodes>
          <leafValues>
            4.2303830385208130e-01 -2.1673075854778290e-01</leafValues></_>
        <_>
          <internalNodes>
            0 -1 228 -1.9717145711183548e-02</internalNodes>
          <leafValues>
            5.2868676185607910e-01 -1.7887721955776215e-01</leafValues></_>
        <_>
          <internalNodes>
            0 -1 229 2.2230632603168488e-02</internalNodes>
          <leafValues>
            -1.8616953492164612e-01 4.7996744513511658e-01</leafValues></_>
        <_>
          <internalNodes>
            0 -1 425 5.1134025852661580e-05</internalNodes>
          <leafValues>
            -3.5698148608207703e-01 2.3294572532176971e-01</leafValues></_>
        <_>
          <internalNodes>
            0 -1 239 -6.9670198718085885e-04</internalNodes>
          <leafValues>
            -4.2606639862060547e-01 1.7099754512310028e-01</leafValues></_>
        <_>
          <internalNodes>
            0 -1 19 4.2261290363967419e-03</internalNodes>
          <leafValues>
            -1.6187180578708649e-01 4.2698258161544800e-01</leafValues></_>
        <_>
          <internalNodes>
            0 -1 259 5.8665231335908175e-05</internalNodes>
          <leafValues>
            -3.3500942587852478e-01 2.0399318635463715e-01</leafValues></_>
        <_>
          <internalNodes>
            0 -1 99 5.4810617119073868e-02</internalNodes>
          <leafValues>
            -1.1457187682390213e-01 6.1736786365509033e-01</leafValues></_>
        <_>
          <internalNodes>
            0 -1 557 6.4056672272272408e-05</internalNodes>
          <leafValues>
            -2.8626996278762817e-01 2.3288306593894958e-01</leafValues></_>
        <_>
          <internalNodes>
            0 -1 291 1.7604843014851213e-03</internalNodes>
          <leafValues>
            8.8341481983661652e-02 -6.5361350774765015e-01</leafValues></_>
        <_>
          <internalNodes>
            0 -1 107 -2.2184131667017937e-03</internalNodes>
          <leafValues>
            3.1507834792137146e-01 -1.9468565285205841e-01</leafValues></_></weakClassifiers></_>
    <!-- stage 3 -->
    <_>
      <maxWeakCount>21</maxWeakCount>
      <stageThreshold>-8.9583414793014526e-01</stageThreshold>
      <weakClassifiers>
        <_>
          <internalNodes>
            0 -1 471 7.5755349826067686e-05</internalNodes>
          <leafValues>
            -3.4168156981468201e-01 5.0957494974136353e-01</leafValues></_>
        <_>
          <internalNodes>
            0 -1 471 7.5340399052947760e-04</internalNodes>
          <leafValues>
            2.3413158953189850e-01 -6.4251762628555298e-01</leafValues></_>
        <_>
          <internalNodes>
            0 -1 353 6.8197798100300133e-05</internalNodes>
          <leafValues>
            -4.4300559163093567e-01 1.9247974455356598e-01</leafValues></_>
        <_>
          <internalNodes>
            0 -1 353 9.0360769536346197e-04</internalNodes>
          <leafValues>
            1.6380850970745087e-01 -4.9873679876327515e-01</leafValues></_>
        <_>
          <internalNodes>
            0 -1 13 -3.8648508489131927e-03</internalNodes>
          <leafValues>
            3.6063903570175171e-01 -1.8989796936511993e-01</leafValues></_>
        <_>
          <internalNodes>
            0 -1 520 -1.5086581697687507e-04</internalNodes>
          <leafValues>
            -3.7726074457168579e-01 1.6447025537490845e-01</leafValues></_>
        <_>
          <internalNodes>
            0 -1 520 1.5921979866106994e-05</internalNodes>
          <leafValues>
            1.4884038269519806e-01 -4.4687420129776001e-01</leafValues></_>
        <_>
          <internalNodes>
            0 -1 623 1.2321505346335471e-04</internalNodes>
          <leafValues>
            -3.2676765322685242e-01 1.9721964001655579e-01</leafValues></_>
        <_>
          <internalNodes>
            0 -1 283 -4.7069913707673550e-03</internalNodes>
          <leafValues>
            4.7110110521316528e-01 -1.5739819407463074e-01</leafValues></_>
        <_>
          <internalNodes>
            0 -1 341 8.5523666348308325e-04</internalNodes>
          <leafValues>
            -1.8451127409934998e-01 5.0404745340347290e-01</leafValues></_>
        <_>
          <internalNodes>
            0 -1 624 -1.1668252991512418e-03</internalNodes>
          <leafValues>
            3.2310301065444946e-01 -2.0580020546913147e-01</leafValues></_>
        <_>
          <internalNodes>
            0 -1 692 9.7362161614000797e-04</internalNodes>
          <leafValues>
            -1.8287254869937897e-01 4.0945121645927429e-01</leafValues></_>
        <_>
          <internalNodes>
            0 -1 328 -1.1614531278610229e-01</internalNodes>
          <leafValues>
            -9.0591657161712646e-01 7.7120818197727203e-02</leafValues></_>
        <_>
          <internalNodes>
            0 -1 689 -1.9000598695129156e-03</internalNodes>
          <leafValues>
            3.5906025767326355e-01 -1.9798699021339417e-01</leafValues></_>
        <_>
          <internalNodes>
            0 -1 459 -1.1107992759207264e-04</internalNodes>
          <leafValues>
            -4.6524652838706970e-01 1.4143529534339905e-01</leafValues></_>
        <_>
          <internalNodes>
            0 -1 633 -8.5757374763488770e-03</internalNodes>
          <leafValues>
            3.4843724966049194e-01 -1.9914062321186066e-01</leafValues></_>
        <_>
          <internalNodes>
            0 -1 249 -1.1958032846450806e-02</internalNodes>
          <leafValues>
            4.5323854684829712e-01 -1.4021974802017212e-01</leafValues></_>
        <_>
          <internalNodes>
            0 -1 525 -2.2506306413561106e-04</internalNodes>
          <leafValues>
            -4.5698860287666321e-01 1.4518080651760101e-01</leafValues></_>
        <_>
          <internalNodes>
            0 -1 341 -2.6629219064489007e-04</internalNodes>
          <leafValues>
            3.3078998327255249e-01 -2.1041680872440338e-01</leafValues></_>
        <_>
          <internalNodes>
            0 -1 546 6.4828949689399451e-05</internalNodes>
          <leafValues>
            -4.0350311994552612e-01 1.7590861022472382e-01</leafValues></_>
        <_>
          <internalNodes>
            0 -1 546 5.3931766888126731e-04</internalNodes>
          <leafValues>
            1.8793232738971710e-01 -4.1420105099678040e-01</leafValues></_></weakClassifiers></_>
    <!-- stage 4 -->
    <_>
      <maxWeakCount>28</maxWeakCount>
      <stageThreshold>-8.4528070688247681e-01</stageThreshold>
      <weakClassifiers>
        <_>
          <internalNodes>
            0 -1 533 -1.7879774532048032e-05</internalNodes>
          <leafValues>
            -3.8297873735427856e-01 4.8430493474006653e-01</leafValues></_>
        <_>
          <internalNodes>
            0 -1 533 2.0492661860771477e-04</internalNodes>
          <leafValues>
            1.7901879549026489e-01 -5.8888053894042969e-01</leafValues></_>
        <_>
          <internalNodes>
            0 -1 528 1.4584124437533319e-04</internalNodes>
          <leafValues>
            -4.1166979074478149e-01 2.0543409883975983e-01</leafValues></_>
        <_>
          <internalNodes>
            0 -1 180 2.8701392002403736e-03</internalNodes>
          <leafValues>
            -1.7077395319938660e-01 4.4670420885086060e-01</leafValues></_>
        <_>
          <internalNodes>
            0 -1 528 8.2489638589322567e-04</internalNodes>
          <leafValues>
            1.4273554086685181e-01 -5.1195710897445679e-01</leafValues></_>
        <_>
          <internalNodes>
            0 -1 144 -2.8033731505274773e-03</internalNodes>
          <leafValues>
            3.6267757415771484e-01 -2.0188306272029877e-01</leafValues></_>
        <_>
          <internalNodes>
            0 -1 295 3.9909238694235682e-05</internalNodes>
          <leafValues>
            -3.5650089383125305e-01 1.9201605021953583e-01</leafValues></_>
        <_>
          <internalNodes>
            0 -1 316 -1.3907389948144555e-03</internalNodes>
          <leafValues>
            4.0438240766525269e-01 -1.9307801127433777e-01</leafValues></_>
        <_>
          <internalNodes>
            0 -1 295 5.3562305402010679e-04</internalNodes>
          <leafValues>
            2.4232010543346405e-01 -3.1312566995620728e-01</leafValues></_>
        <_>
          <internalNodes>
            0 -1 310 -3.5666432231664658e-03</internalNodes>
          <leafValues>
            2.8853189945220947e-01 -2.3071871697902679e-01</leafValues></_>
        <_>
          <internalNodes>
            0 -1 95 2.3736910894513130e-02</internalNodes>
          <leafValues>
            -1.5561811625957489e-01 3.8473701477050781e-01</leafValues></_>
        <_>
          <internalNodes>
            0 -1 175 -1.1967606842517853e-03</internalNodes>
          <leafValues>
            3.6953884363174438e-01 -1.5923923254013062e-01</leafValues></_>
        <_>
          <internalNodes>
            0 -1 176 1.3647440355271101e-03</internalNodes>
          <leafValues>
            -1.6380065679550171e-01 3.9584797620773315e-01</leafValues></_>
        <_>
          <internalNodes>
            0 -1 621 1.3087675324641168e-04</internalNodes>
          <leafValues>
            -2.9703438282012939e-01 1.9589599967002869e-01</leafValues></_>
        <_>
          <internalNodes>
            0 -1 158 1.0745278559625149e-02</internalNodes>
          <leafValues>
            -1.2807597219944000e-01 4.6579614281654358e-01</leafValues></_>
        <_>
          <internalNodes>
            0 -1 668 -1.0527386330068111e-02</internalNodes>
          <leafValues>
            3.1598776578903198e-01 -2.2488754987716675e-01</leafValues></_>
        <_>
          <internalNodes>
            0 -1 397 1.4094164362177253e-04</internalNodes>
          <leafValues>
            -3.6673763394355774e-01 1.7790466547012329e-01</leafValues></_>
        <_>
          <internalNodes>
            0 -1 397 7.6633767457678914e-04</internalNodes>
          <leafValues>
            1.6271416842937469e-01 -4.5260050892829895e-01</leafValues></_>
        <_>
          <internalNodes>
            0 -1 382 1.3238459825515747e-02</internalNodes>
          <leafValues>
            -1.7887809872627258e-01 3.6543428897857666e-01</leafValues></_>
        <_>
          <internalNodes>
            0 -1 181 4.5629389584064484e-02</internalNodes>
          <leafValues>
            -1.1618027091026306e-01 4.8055741190910339e-01</leafValues></_>
        <_>
          <internalNodes>
            0 -1 586 8.9796289103105664e-04</internalNodes>
          <leafValues>
            1.4700981974601746e-01 -4.0218302607536316e-01</leafValues></_>
        <_>
          <internalNodes>
            0 -1 546 1.1825811816379428e-04</internalNodes>
          <leafValues>
            -3.4759524464607239e-01 1.6520828008651733e-01</leafValues></_>
        <_>
          <internalNodes>
            0 -1 217 -6.5635878127068281e-04</internalNodes>
          <leafValues>
            3.1874585151672363e-01 -1.8786394596099854e-01</leafValues></_>
        <_>
          <internalNodes>
            0 -1 565 3.4031786490231752e-03</internalNodes>
          <leafValues>
            -1.2633992731571198e-01 4.4839933514595032e-01</leafValues></_>
        <_>
          <internalNodes>
            0 -1 360 -3.2932092435657978e-03</internalNodes>
          <leafValues>
            3.7755817174911499e-01 -1.5692600607872009e-01</leafValues></_>
        <_>
          <internalNodes>
            0 -1 505 -2.1406449377536774e-03</internalNodes>
          <leafValues>
            3.1066036224365234e-01 -1.7295275628566742e-01</leafValues></_>
        <_>
          <internalNodes>
            0 -1 420 -1.8906584009528160e-03</internalNodes>
          <leafValues>
            -5.8494466543197632e-01 1.1321111023426056e-01</leafValues></_>
        <_>
          <internalNodes>
            0 -1 21 -1.9778156653046608e-02</internalNodes>
          <leafValues>
            4.9536421895027161e-01 -1.2804816663265228e-01</leafValues></_></weakClassifiers></_>
    <!-- stage 5 -->
    <_>
      <maxWeakCount>27</maxWeakCount>
      <stageThreshold>-8.0071866512298584e-01</stageThreshold>
      <weakClassifiers>
        <_>
          <internalNodes>
            0 -1 537 1.3261125423014164e-04</internalNodes>
          <leafValues>
            -2.5072047114372253e-01 5.3539383411407471e-01</leafValues></_>
        <_>
          <internalNodes>
            0 -1 537 7.9143629409372807e-04</internalNodes>
          <leafValues>
            1.9299086928367615e-01 -6.1429846286773682e-01</leafValues></_>
        <_>
          <internalNodes>
            0 -1 462 9.5323062851093709e-05</internalNodes>
          <leafValues>
            -4.9722316861152649e-01 1.3654218614101410e-01</leafValues></_>
        <_>
          <internalNodes>
            0 -1 460 1.1720093607436866e-04</internalNodes>
          <leafValues>
            1.2434805929660797e-01 -4.6148180961608887e-01</leafValues></_>
        <_>
          <internalNodes>
            0 -1 463 -2.0447236602194607e-04</internalNodes>
          <leafValues>
            -4.2108190059661865e-01 1.9206546247005463e-01</leafValues></_>
        <_>
          <internalNodes>
            0 -1 218 -9.8055275157094002e-04</internalNodes>
          <leafValues>
            3.1543391942977905e-01 -2.0428991317749023e-01</leafValues></_>
        <_>
          <internalNodes>
            0 -1 442 -7.5927935540676117e-03</internalNodes>
          <leafValues>
            3.9846825599670410e-01 -1.3369819521903992e-01</leafValues></_>
        <_>
          <internalNodes>
            0 -1 311 -1.2441712897270918e-03</internalNodes>
          <leafValues>
            3.1074041128158569e-01 -2.1881927549839020e-01</leafValues></_>
        <_>
          <internalNodes>
            0 -1 495 -1.4102784916758537e-04</internalNodes>
          <leafValues>
            -4.0366244316101074e-01 1.5460687875747681e-01</leafValues></_>
        <_>
          <internalNodes>
            0 -1 485 -2.4983328767120838e-03</internalNodes>
          <leafValues>
            3.1378254294395447e-01 -1.8385188281536102e-01</leafValues></_>
        <_>
          <internalNodes>
            0 -1 482 -1.3655396178364754e-03</internalNodes>
          <leafValues>
            4.0194028615951538e-01 -1.8779402971267700e-01</leafValues></_>
        <_>
          <internalNodes>
            0 -1 393 9.5956563949584961e-02</internalNodes>
          <leafValues>
            8.9919336140155792e-02 -8.3731156587600708e-01</leafValues></_>
        <_>
          <internalNodes>
            0 -1 326 -6.0097098350524902e-02</internalNodes>
          <leafValues>
            -7.3670399188995361e-01 5.0950609147548676e-02</leafValues></_>
        <_>
          <internalNodes>
            0 -1 10 1.0694205760955811e-02</internalNodes>
          <leafValues>
            -1.5055580437183380e-01 3.9598959684371948e-01</leafValues></_>
        <_>
          <internalNodes>
            0 -1 469 2.2068187536206096e-04</internalNodes>
          <leafValues>
            1.4050693809986115e-01 -4.6948578953742981e-01</leafValues></_>
        <_>
          <internalNodes>
            0 -1 292 -2.6905965059995651e-03</internalNodes>
          <leafValues>
            -6.4928531646728516e-01 6.9875523447990417e-02</leafValues></_>
        <_>
          <internalNodes>
            0 -1 684 4.3009482324123383e-03</internalNodes>
          <leafValues>
            -1.5100316703319550e-01 3.8643527030944824e-01</leafValues></_>
        <_>
          <internalNodes>
            0 -1 693 -5.8534496929496527e-04</internalNodes>
          <leafValues>
            3.7749019265174866e-01 -1.9507236778736115e-01</leafValues></_>
        <_>
          <internalNodes>
            0 -1 522 1.5584050561301410e-04</internalNodes>
          <leafValues>
            1.6178846359252930e-01 -3.8616359233856201e-01</leafValues></_>
        <_>
          <internalNodes>
            0 -1 534 -1.1190510122105479e-04</internalNodes>
          <leafValues>
            -3.4816563129425049e-01 1.4928916096687317e-01</leafValues></_>
        <_>
          <internalNodes>
            0 -1 172 -3.8736201822757721e-02</internalNodes>
          <leafValues>
            4.7779786586761475e-01 -1.3201901316642761e-01</leafValues></_>
        <_>
          <internalNodes>
            0 -1 142 5.3375907242298126e-02</internalNodes>
          <leafValues>
            -1.1710377782583237e-01 4.5000159740447998e-01</leafValues></_>
        <_>
          <internalNodes>
            0 -1 47 -6.5171889960765839e-02</internalNodes>
          <leafValues>
            4.0810078382492065e-01 -1.2145345658063889e-01</leafValues></_>
        <_>
          <internalNodes>
            0 -1 623 1.3658456737175584e-04</internalNodes>
          <leafValues>
            -3.1916454434394836e-01 1.7986926436424255e-01</leafValues></_>
        <_>
          <internalNodes>
            0 -1 454 -2.1740709780715406e-04</internalNodes>
          <leafValues>
            -3.4159341454505920e-01 1.6803659498691559e-01</leafValues></_>
        <_>
          <internalNodes>
            0 -1 667 -7.2723766788840294e-03</internalNodes>
          <leafValues>
            3.0552074313163757e-01 -2.0638073980808258e-01</leafValues></_>
        <_>
          <internalNodes>
            0 -1 377 -8.1564895808696747e-03</internalNodes>
          <leafValues>
            3.8461968302726746e-01 -1.7684777081012726e-01</leafValues></_></weakClassifiers></_>
    <!-- stage 6 -->
    <_>
      <maxWeakCount>36</maxWeakCount>
      <stageThreshold>-9.6095305681228638e-01</stageThreshold>
      <weakClassifiers>
        <_>
          <internalNodes>
            0 -1 471 1.2759212404489517e-04</internalNodes>
          <leafValues>
            -2.2772277891635895e-01 4.9570199847221375e-01</leafValues></_>
        <_>
          <internalNodes>
            0 -1 530 2.6003958191722631e-04</internalNodes>
          <leafValues>
            1.8959493935108185e-01 -4.8249131441116333e-01</leafValues></_>
        <_>
          <internalNodes>
            0 -1 532 -2.6664210599847138e-04</internalNodes>
          <leafValues>
            -3.9097896218299866e-01 2.1363936364650726e-01</leafValues></_>
        <_>
          <internalNodes>
            0 -1 247 -1.0811625048518181e-02</internalNodes>
          <leafValues>
            3.1829029321670532e-01 -2.0777904987335205e-01</leafValues></_>
        <_>
          <internalNodes>
            0 -1 22 -8.2952296361327171e-04</internalNodes>
          <leafValues>
            3.2237976789474487e-01 -1.6487088799476624e-01</leafValues></_>
        <_>
          <internalNodes>
            0 -1 312 7.6931538060307503e-03</internalNodes>
          <leafValues>
            -2.2589647769927979e-01 2.5866597890853882e-01</leafValues></_>
        <_>
          <internalNodes>
            0 -1 533 1.9322130538057536e-04</internalNodes>
          <leafValues>
            1.1487021297216415e-01 -5.1713466644287109e-01</leafValues></_>
        <_>
          <internalNodes>
            0 -1 295 4.2757936171256006e-05</internalNodes>
          <leafValues>
            -3.2486790418624878e-01 1.5104764699935913e-01</leafValues></_>
        <_>
          <internalNodes>
            0 -1 295 6.5900618210434914e-04</internalNodes>
          <leafValues>
            1.5396232903003693e-01 -3.4417164325714111e-01</leafValues></_>
        <_>
          <internalNodes>
            0 -1 17 6.7209493136033416e-04</internalNodes>
          <leafValues>
            -1.4517696201801300e-01 3.6035054922103882e-01</leafValues></_>
        <_>
          <internalNodes>
            0 -1 511 1.5229973010718822e-02</internalNodes>
          <leafValues>
            -1.5101629495620728e-01 3.2132562994956970e-01</leafValues></_>
        <_>
          <internalNodes>
            0 -1 400 -1.6812819012557156e-05</internalNodes>
          <leafValues>
            -3.5111308097839355e-01 1.4782981574535370e-01</leafValues></_>
        <_>
          <internalNodes>
            0 -1 270 2.0752022974193096e-03</internalNodes>
          <leafValues>
            -1.4995938539505005e-01 3.2468110322952271e-01</leafValues></_>
        <_>
          <internalNodes>
            0 -1 277 -7.2154286317527294e-04</internalNodes>
          <leafValues>
            3.2274460792541504e-01 -2.0390771329402924e-01</leafValues></_>
        <_>
          <internalNodes>
            0 -1 607 -7.0150168612599373e-03</internalNodes>
          <leafValues>
            3.3347910642623901e-01 -1.3302110135555267e-01</leafValues></_>
        <_>
          <internalNodes>
            0 -1 613 1.2324482668191195e-04</internalNodes>
          <leafValues>
            -2.4683278799057007e-01 1.8326555192470551e-01</leafValues></_>
        <_>
          <internalNodes>
            0 -1 110 -2.4276349693536758e-02</internalNodes>
          <leafValues>
            5.0556111335754395e-01 -8.7109297513961792e-02</leafValues></_>
        <_>
          <internalNodes>
            0 -1 150 -3.6410603672266006e-02</internalNodes>
          <leafValues>
            5.1511317491531372e-01 -8.5291817784309387e-02</leafValues></_>
        <_>
          <internalNodes>
            0 -1 497 6.1981868930160999e-04</internalNodes>
          <leafValues>
            1.1797816306352615e-01 -4.2322021722793579e-01</leafValues></_>
        <_>
          <internalNodes>
            0 -1 273 -3.0836928635835648e-03</internalNodes>
          <leafValues>
            2.6849135756492615e-01 -1.7577029764652252e-01</leafValues></_>
        <_>
          <internalNodes>
            0 -1 332 -5.4387870477512479e-05</internalNodes>
          <leafValues>
            -3.2300743460655212e-01 1.5384089946746826e-01</leafValues></_>
        <_>
          <internalNodes>
            0 -1 257 -4.4416896998882294e-03</internalNodes>
          <leafValues>
            2.7539423108100891e-01 -1.7854309082031250e-01</leafValues></_>
        <_>
          <internalNodes>
            0 -1 293 -1.4250971376895905e-02</internalNodes>
          <leafValues>
            4.1548874974250793e-01 -1.1072959005832672e-01</leafValues></_>
        <_>
          <internalNodes>
            0 -1 38 4.9208883196115494e-02</internalNodes>
          <leafValues>
            -6.5154731273651123e-02 5.9349983930587769e-01</leafValues></_>
        <_>
          <internalNodes>
            0 -1 58 -1.3291228096932173e-03</internalNodes>
          <leafValues>
            3.4325391054153442e-01 -1.1917185038328171e-01</leafValues></_>
        <_>
          <internalNodes>
            0 -1 450 6.8406079662963748e-05</internalNodes>
          <leafValues>
            1.4145679771900177e-01 -3.0884692072868347e-01</leafValues></_>
        <_>
          <internalNodes>
            0 -1 584 2.1028402261435986e-04</internalNodes>
          <leafValues>
            1.0780056565999985e-01 -3.8569548726081848e-01</leafValues></_>
        <_>
          <internalNodes>
            0 -1 303 7.6862279092893004e-04</internalNodes>
          <leafValues>
            -1.5092831850051880e-01 3.3712384104728699e-01</leafValues></_>
        <_>
          <internalNodes>
            0 -1 109 1.4105045702308416e-03</internalNodes>
          <leafValues>
            -1.5995661914348602e-01 2.9028260707855225e-01</leafValues></_>
        <_>
          <internalNodes>
            0 -1 290 1.3803510926663876e-02</internalNodes>
          <leafValues>
            5.8894168585538864e-02 -7.9312407970428467e-01</leafValues></_>
        <_>
          <internalNodes>
            0 -1 104 -1.9737955182790756e-02</internalNodes>
          <leafValues>
            -5.9824603796005249e-01 6.4867123961448669e-02</leafValues></_>
        <_>
          <internalNodes>
            0 -1 280 1.3739854330196977e-03</internalNodes>
          <leafValues>
            -1.5520682930946350e-01 3.0527451634407043e-01</leafValues></_>
        <_>
          <internalNodes>
            0 -1 483 -5.6040743365883827e-03</internalNodes>
          <leafValues>
            4.4615069031715393e-01 -1.0079289972782135e-01</leafValues></_>
        <_>
          <internalNodes>
            0 -1 26 -2.1649092435836792e-02</internalNodes>
          <leafValues>
            3.4569290280342102e-01 -1.1822631955146790e-01</leafValues></_>
        <_>
          <internalNodes>
            0 -1 221 -5.5528758093714714e-03</internalNodes>
          <leafValues>
            2.9403215646743774e-01 -1.8103532493114471e-01</leafValues></_>
        <_>
          <internalNodes>
            0 -1 546 8.0986108514480293e-05</internalNodes>
          <leafValues>
            -3.3741018176078796e-01 1.3930110633373260e-01</leafValues></_></weakClassifiers></_>
    <!-- stage 7 -->
    <_>
      <maxWeakCount>32</maxWeakCount>
      <stageThreshold>-8.2115608453750610e-01</stageThreshold>
      <weakClassifiers>
        <_>
          <internalNodes>
            0 -1 450 -1.7190258949995041e-04</internalNodes>
          <leafValues>
            -2.3899370431900024e-01 5.0968992710113525e-01</leafValues></_>
        <_>
          <internalNodes>
            0 -1 577 -1.9445344150881283e-05</internalNodes>
          <leafValues>
            -5.3075063228607178e-01 1.8938116729259491e-01</leafValues></_>
        <_>
          <internalNodes>
            0 -1 577 1.6148979193530977e-04</internalNodes>
          <leafValues>
            1.9402609765529633e-01 -4.1941407322883606e-01</leafValues></_>
        <_>
          <internalNodes>
            0 -1 457 1.7571344505995512e-04</internalNodes>
          <leafValues>
            9.8474085330963135e-02 -4.7785076498985291e-01</leafValues></_>
        <_>
          <internalNodes>
            0 -1 14 -9.6559002995491028e-03</internalNodes>
          <leafValues>
            4.2792996764183044e-01 -1.3099767267704010e-01</leafValues></_>
        <_>
          <internalNodes>
            0 -1 33 1.9179997034370899e-03</internalNodes>
          <leafValues>
            -1.8093322217464447e-01 3.5462665557861328e-01</leafValues></_>
        <_>
          <internalNodes>
            0 -1 211 -1.6267552971839905e-01</internalNodes>
          <leafValues>
            -9.3262368440628052e-01 5.4337032139301300e-02</leafValues></_>
        <_>
          <internalNodes>
            0 -1 468 -1.8091466699843295e-05</internalNodes>
          <leafValues>
            -4.4641613960266113e-01 9.8495878279209137e-02</leafValues></_>
        <_>
          <internalNodes>
            0 -1 468 3.9995156112127006e-04</internalNodes>
          <leafValues>
            8.4710083901882172e-02 -5.8255392313003540e-01</leafValues></_>
        <_>
          <internalNodes>
            0 -1 488 -6.3847028650343418e-04</internalNodes>
          <leafValues>
            4.0749135613441467e-01 -1.3924987614154816e-01</leafValues></_>
        <_>
          <internalNodes>
            0 -1 626 1.3191890902817249e-03</internalNodes>
          <leafValues>
            -1.3350756466388702e-01 3.2852846384048462e-01</leafValues></_>
        <_>
          <internalNodes>
            0 -1 477 2.9305403586477041e-03</internalNodes>
          <leafValues>
            -1.9008369743824005e-01 2.5093448162078857e-01</leafValues></_>
        <_>
          <internalNodes>
            0 -1 474 -2.8444859199225903e-03</internalNodes>
          <leafValues>
            3.3513599634170532e-01 -1.6531790792942047e-01</leafValues></_>
        <_>
          <internalNodes>
            0 -1 354 2.1055286924820393e-04</internalNodes>
          <leafValues>
            -2.9132917523384094e-01 1.7165777087211609e-01</leafValues></_>
        <_>
          <internalNodes>
            0 -1 524 2.9786353115923703e-04</internalNodes>
          <leafValues>
            9.2987760901451111e-02 -4.6237042546272278e-01</leafValues></_>
        <_>
          <internalNodes>
            0 -1 602 7.9955235123634338e-03</internalNodes>
          <leafValues>
            -1.6918553411960602e-01 2.8180488944053650e-01</leafValues></_>
        <_>
          <internalNodes>
            0 -1 602 -1.0313846170902252e-02</internalNodes>
          <leafValues>
            3.2211175560951233e-01 -1.5496891736984253e-01</leafValues></_>
        <_>
          <internalNodes>
            0 -1 357 5.6846793740987778e-03</internalNodes>
          <leafValues>
            -1.2451269477605820e-01 3.4712046384811401e-01</leafValues></_>
        <_>
          <internalNodes>
            0 -1 49 -3.9533306844532490e-03</internalNodes>
          <leafValues>
            2.6223894953727722e-01 -1.6215580701828003e-01</leafValues></_>
        <_>
          <internalNodes>
            0 -1 596 1.1698217131197453e-03</internalNodes>
          <leafValues>
            7.3146782815456390e-02 -5.4714202880859375e-01</leafValues></_>
        <_>
          <internalNodes>
            0 -1 586 9.1398440417833626e-05</internalNodes>
          <leafValues>
            -3.1306844949722290e-01 1.3077479600906372e-01</leafValues></_>
        <_>
          <internalNodes>
            0 -1 196 2.0652459934353828e-03</internalNodes>
          <leafValues>
            -1.4921538531780243e-01 2.8778487443923950e-01</leafValues></_>
        <_>
          <internalNodes>
            0 -1 93 2.3551031947135925e-02</internalNodes>
          <leafValues>
            -1.0659541189670563e-01 4.2577412724494934e-01</leafValues></_>
        <_>
          <internalNodes>
            0 -1 98 1.0964533314108849e-02</internalNodes>
          <leafValues>
            -1.1523131281137466e-01 4.3507885932922363e-01</leafValues></_>
        <_>
          <internalNodes>
            0 -1 690 5.2896076813340187e-03</internalNodes>
          <leafValues>
            -1.2664605677127838e-01 3.5686701536178589e-01</leafValues></_>
        <_>
          <internalNodes>
            0 -1 330 6.2441366026178002e-05</internalNodes>
          <leafValues>
            -3.3690360188484192e-01 1.4861646294593811e-01</leafValues></_>
        <_>
          <internalNodes>
            0 -1 680 1.5332859475165606e-03</internalNodes>
          <leafValues>
            -1.5489271283149719e-01 2.9984831809997559e-01</leafValues></_>
        <_>
          <internalNodes>
            0 -1 620 1.8916169938165694e-04</internalNodes>
          <leafValues>
            1.3457362353801727e-01 -3.4036958217620850e-01</leafValues></_>
        <_>
          <internalNodes>
            0 -1 309 -9.1841379180550575e-03</internalNodes>
          <leafValues>
            2.8596043586730957e-01 -1.7849218845367432e-01</leafValues></_>
        <_>
          <internalNodes>
            0 -1 440 1.0797271970659494e-03</internalNodes>
          <leafValues>
            -1.5998241305351257e-01 2.6256659626960754e-01</leafValues></_>
        <_>
          <internalNodes>
            0 -1 284 2.6372607797384262e-02</internalNodes>
          <leafValues>
            -1.1268611997365952e-01 3.6359697580337524e-01</leafValues></_>
        <_>
          <internalNodes>
            0 -1 676 -9.3093211762607098e-04</internalNodes>
          <leafValues>
            2.6467627286911011e-01 -1.5899392962455750e-01</leafValues></_></weakClassifiers></_>
    <!-- stage 8 -->
    <_>
      <maxWeakCount>42</maxWeakCount>
      <stageThreshold>-1.0459091663360596e+00</stageThreshold>
      <weakClassifiers>
        <_>
          <internalNodes>
            0 -1 527 -3.8634234806522727e-04</internalNodes>
          <leafValues>
            -3.1591448187828064e-01 4.5326897501945496e-01</leafValues></_>
        <_>
          <internalNodes>
            0 -1 537 1.1217339488212019e-04</internalNodes>
          <leafValues>
            -4.5593744516372681e-01 1.9103790819644928e-01</leafValues></_>
        <_>
          <internalNodes>
            0 -1 31 -7.9813180491328239e-04</internalNodes>
          <leafValues>
            3.6251109838485718e-01 -1.6339574754238129e-01</leafValues></_>
        <_>
          <internalNodes>
            0 -1 423 2.2785480541642755e-04</internalNodes>
          <leafValues>
            1.4495238661766052e-01 -4.2383456230163574e-01</leafValues></_>
        <_>
          <internalNodes>
            0 -1 423 -1.1461535177659243e-04</internalNodes>
          <leafValues>
            -5.0546193122863770e-01 1.3580659031867981e-01</leafValues></_>
        <_>
          <internalNodes>
            0 -1 412 -2.4691936559975147e-03</internalNodes>
          <leafValues>
            3.3785438537597656e-01 -1.5068118274211884e-01</leafValues></_>
        <_>
          <internalNodes>
            0 -1 484 6.5000518225133419e-04</internalNodes>
          <leafValues>
            -2.2489221394062042e-01 3.2983961701393127e-01</leafValues></_>
        <_>
          <internalNodes>
            0 -1 486 -6.2680145492777228e-04</internalNodes>
          <leafValues>
            2.5248783826828003e-01 -2.0411245524883270e-01</leafValues></_>
        <_>
          <internalNodes>
            0 -1 395 1.8047936464427039e-05</internalNodes>
          <leafValues>
            1.6695073246955872e-01 -2.9017174243927002e-01</leafValues></_>
        <_>
          <internalNodes>
            0 -1 97 -1.2255096808075905e-02</internalNodes>
          <leafValues>
            3.0378064513206482e-01 -1.5805561840534210e-01</leafValues></_>
        <_>
          <internalNodes>
            0 -1 167 7.3061715811491013e-03</internalNodes>
          <leafValues>
            -1.2759122252464294e-01 3.6278420686721802e-01</leafValues></_>
        <_>
          <internalNodes>
            0 -1 452 3.9802654646337032e-03</internalNodes>
          <leafValues>
            6.5067514777183533e-02 -6.9418364763259888e-01</leafValues></_>
        <_>
          <internalNodes>
            0 -1 470 -1.9088271073997021e-04</internalNodes>
          <leafValues>
            -4.6620556712150574e-01 9.1179080307483673e-02</leafValues></_>
        <_>
          <internalNodes>
            0 -1 342 5.4247904336079955e-04</internalNodes>
          <leafValues>
            -1.5162828564643860e-01 3.2554152607917786e-01</leafValues></_>
        <_>
          <internalNodes>
            0 -1 342 -4.0432336390949786e-04</internalNodes>
          <leafValues>
            3.2527631521224976e-01 -1.7839065194129944e-01</leafValues></_>
        <_>
          <internalNodes>
            0 -1 174 1.2878564000129700e-01</internalNodes>
          <leafValues>
            6.4188577234745026e-02 -7.7201867103576660e-01</leafValues></_>
        <_>
          <internalNodes>
            0 -1 670 -7.4648822192102671e-04</internalNodes>
          <leafValues>
            2.5829812884330750e-01 -1.6797357797622681e-01</leafValues></_>
        <_>
          <internalNodes>
            0 -1 133 -1.8163084983825684e-01</internalNodes>
          <leafValues>
            -7.2299760580062866e-01 6.0215987265110016e-02</leafValues></_>
        <_>
          <internalNodes>
            0 -1 559 1.6493501607328653e-03</internalNodes>
          <leafValues>
            6.8037785589694977e-02 -5.6232744455337524e-01</leafValues></_>
        <_>
          <internalNodes>
            0 -1 498 7.6243770308792591e-05</internalNodes>
          <leafValues>
            -2.6831990480422974e-01 1.4955507218837738e-01</leafValues></_>
        <_>
          <internalNodes>
            0 -1 240 5.0662500143516809e-05</internalNodes>
          <leafValues>
            -2.5390717387199402e-01 1.6048471629619598e-01</leafValues></_>
        <_>
          <internalNodes>
            0 -1 65 2.3369438946247101e-01</internalNodes>
          <leafValues>
            6.3658744096755981e-02 -5.8724683523178101e-01</leafValues></_>
        <_>
          <internalNodes>
            0 -1 693 -1.6214174684137106e-03</internalNodes>
          <leafValues>
            3.7241813540458679e-01 -1.0782837122678757e-01</leafValues></_>
        <_>
          <internalNodes>
            0 -1 675 -5.7905603898689151e-04</internalNodes>
          <leafValues>
            3.0377808213233948e-01 -1.6634814441204071e-01</leafValues></_>
        <_>
          <internalNodes>
            0 -1 265 -3.5489365109242499e-04</internalNodes>
          <leafValues>
            -3.4756359457969666e-01 1.2910628318786621e-01</leafValues></_>
        <_>
          <internalNodes>
            0 -1 618 -2.0433738245628774e-04</internalNodes>
          <leafValues>
            -3.1960013508796692e-01 1.4216007292270660e-01</leafValues></_>
        <_>
          <internalNodes>
            0 -1 397 1.3231106277089566e-04</internalNodes>
          <leafValues>
            -3.3617725968360901e-01 1.3695964217185974e-01</leafValues></_>
        <_>
          <internalNodes>
            0 -1 127 -4.7301284968852997e-02</internalNodes>
          <leafValues>
            5.0022166967391968e-01 -1.0104619711637497e-01</leafValues></_>
        <_>
          <internalNodes>
            0 -1 75 2.0973160862922668e-02</internalNodes>
          <leafValues>
            -1.0320052504539490e-01 3.7923219799995422e-01</leafValues></_>
        <_>
          <internalNodes>
            0 -1 145 -2.7185911312699318e-03</internalNodes>
          <leafValues>
            3.3381450176239014e-01 -1.3002014160156250e-01</leafValues></_>
        <_>
          <internalNodes>
            0 -1 186 -1.0110210132552311e-04</internalNodes>
          <leafValues>
            -3.1126296520233154e-01 1.6000287234783173e-01</leafValues></_>
        <_>
          <internalNodes>
            0 -1 152 -1.2932599056512117e-03</internalNodes>
          <leafValues>
            3.5345956683158875e-01 -1.2002140283584595e-01</leafValues></_>
        <_>
          <internalNodes>
            0 -1 656 5.3396439179778099e-03</internalNodes>
          <leafValues>
            -1.3212846219539642e-01 3.1334829330444336e-01</leafValues></_>
        <_>
          <internalNodes>
            0 -1 152 5.4414966143667698e-04</internalNodes>
          <leafValues>
            -1.4057375490665436e-01 2.9447388648986816e-01</leafValues></_>
        <_>
          <internalNodes>
            0 -1 677 6.3024734845384955e-04</internalNodes>
          <leafValues>
            -1.4960297942161560e-01 2.5277620553970337e-01</leafValues></_>
        <_>
          <internalNodes>
            0 -1 679 2.9811441898345947e-02</internalNodes>
          <leafValues>
            -7.7769786119461060e-02 4.9676483869552612e-01</leafValues></_>
        <_>
          <internalNodes>
            0 -1 497 -3.0960186268202960e-04</internalNodes>
          <leafValues>
            -3.3376586437225342e-01 1.2082961201667786e-01</leafValues></_>
        <_>
          <internalNodes>
            0 -1 465 2.1893563680350780e-03</internalNodes>
          <leafValues>
            -1.5088531374931335e-01 2.5468024611473083e-01</leafValues></_>
        <_>
          <internalNodes>
            0 -1 73 -1.0419266298413277e-02</internalNodes>
          <leafValues>
            2.4603857100009918e-01 -1.6912680864334106e-01</leafValues></_>
        <_>
          <internalNodes>
            0 -1 521 4.6676443889737129e-04</internalNodes>
          <leafValues>
            1.0911815613508224e-01 -4.0884360671043396e-01</leafValues></_>
        <_>
          <internalNodes>
            0 -1 453 1.2250046711415052e-04</internalNodes>
          <leafValues>
            -2.8690427541732788e-01 1.5787425637245178e-01</leafValues></_>
        <_>
          <internalNodes>
            0 -1 288 3.9244997315108776e-03</internalNodes>
          <leafValues>
            -1.3894452154636383e-01 3.0438748002052307e-01</leafValues></_></weakClassifiers></_>
    <!-- stage 9 -->
    <_>
      <maxWeakCount>35</maxWeakCount>
      <stageThreshold>-7.8643882274627686e-01</stageThreshold>
      <weakClassifiers>
        <_>
          <internalNodes>
            0 -1 522 -2.3259915178641677e-04</internalNodes>
          <leafValues>
            -1.6780821979045868e-01 4.7164461016654968e-01</leafValues></_>
        <_>
          <internalNodes>
            0 -1 457 1.4915429346729070e-04</internalNodes>
          <leafValues>
            1.9365201890468597e-01 -4.1708123683929443e-01</leafValues></_>
        <_>
          <internalNodes>
            0 -1 353 5.3335268603404984e-05</internalNodes>
          <leafValues>
            -3.6542481184005737e-01 1.4859311282634735e-01</leafValues></_>
        <_>
          <internalNodes>
            0 -1 353 5.6761881569400430e-04</internalNodes>
          <leafValues>
            1.6694238781929016e-01 -3.7243497371673584e-01</leafValues></_>
        <_>
          <internalNodes>
            0 -1 225 -3.0583338811993599e-03</internalNodes>
          <leafValues>
            3.1780460476875305e-01 -1.6744643449783325e-01</leafValues></_>
        <_>
          <internalNodes>
            0 -1 339 -1.8903009593486786e-02</internalNodes>
          <leafValues>
            3.9061006903648376e-01 -1.4125400781631470e-01</leafValues></_>
        <_>
          <internalNodes>
            0 -1 410 4.5620324090123177e-03</internalNodes>
          <leafValues>
            -2.4569928646087646e-01 2.6984244585037231e-01</leafValues></_>
        <_>
          <internalNodes>
            0 -1 541 3.4080760087817907e-04</internalNodes>
          <leafValues>
            1.4791847765445709e-01 -4.2335861921310425e-01</leafValues></_>
        <_>
          <internalNodes>
            0 -1 478 -3.5752390976995230e-04</internalNodes>
          <leafValues>
            -3.9753586053848267e-01 1.5975211560726166e-01</leafValues></_>
        <_>
          <internalNodes>
            0 -1 480 3.9499672129750252e-04</internalNodes>
          <leafValues>
            -1.8028733134269714e-01 3.1126242876052856e-01</leafValues></_>
        <_>
          <internalNodes>
            0 -1 166 -1.8234632909297943e-02</internalNodes>
          <leafValues>
            3.9142999053001404e-01 -1.4650256931781769e-01</leafValues></_>
        <_>
          <internalNodes>
            0 -1 27 -5.6851858971640468e-04</internalNodes>
          <leafValues>
            2.9070463776588440e-01 -1.6262590885162354e-01</leafValues></_>
        <_>
          <internalNodes>
            0 -1 363 -1.8740559462457895e-03</internalNodes>
          <leafValues>
            2.8628504276275635e-01 -1.5246872603893280e-01</leafValues></_>
        <_>
          <internalNodes>
            0 -1 54 -5.6094683706760406e-02</internalNodes>
          <leafValues>
            3.0963486433029175e-01 -1.3799788057804108e-01</leafValues></_>
        <_>
          <internalNodes>
            0 -1 350 5.5167351092677563e-05</internalNodes>
          <leafValues>
            -2.7663302421569824e-01 1.6354934871196747e-01</leafValues></_>
        <_>
          <internalNodes>
            0 -1 691 7.8831351129338145e-04</internalNodes>
          <leafValues>
            -1.2208344787359238e-01 3.4394305944442749e-01</leafValues></_>
        <_>
          <internalNodes>
            0 -1 691 -6.1287137214094400e-04</internalNodes>
          <leafValues>
            3.0571523308753967e-01 -1.4383977651596069e-01</leafValues></_>
        <_>
          <internalNodes>
            0 -1 536 1.8157279555452988e-05</internalNodes>
          <leafValues>
            -3.1683048605918884e-01 1.5658356249332428e-01</leafValues></_>
        <_>
          <internalNodes>
            0 -1 544 2.3338607570622116e-04</internalNodes>
          <leafValues>
            1.3934390246868134e-01 -4.4763976335525513e-01</leafValues></_>
        <_>
          <internalNodes>
            0 -1 492 7.6655773445963860e-03</internalNodes>
          <leafValues>
            7.7357620000839233e-02 -4.9442544579505920e-01</leafValues></_>
        <_>
          <internalNodes>
            0 -1 213 2.3740445612929761e-05</internalNodes>
          <leafValues>
            -2.8578385710716248e-01 1.4071622490882874e-01</leafValues></_>
        <_>
          <internalNodes>
            0 -1 29 2.6894626207649708e-03</internalNodes>
          <leafValues>
            -1.1804123967885971e-01 3.5833972692489624e-01</leafValues></_>
        <_>
          <internalNodes>
            0 -1 301 -4.8693714779801667e-04</internalNodes>
          <leafValues>
            3.0440282821655273e-01 -1.4717344939708710e-01</leafValues></_>
        <_>
          <internalNodes>
            0 -1 243 -7.4733822839334607e-04</internalNodes>
          <leafValues>
            3.0738025903701782e-01 -1.3744501769542694e-01</leafValues></_>
        <_>
          <internalNodes>
            0 -1 642 1.2480853125452995e-02</internalNodes>
          <leafValues>
            7.7328979969024658e-02 -5.8198773860931396e-01</leafValues></_>
        <_>
          <internalNodes>
            0 -1 45 2.6245536282658577e-03</internalNodes>
          <leafValues>
            -1.2658503651618958e-01 3.1451347470283508e-01</leafValues></_>
        <_>
          <internalNodes>
            0 -1 328 -1.0065319389104843e-01</internalNodes>
          <leafValues>
            -7.9868274927139282e-01 5.6020747870206833e-02</leafValues></_>
        <_>
          <internalNodes>
            0 -1 245 -4.9287121510133147e-04</internalNodes>
          <leafValues>
            2.4361103773117065e-01 -1.6521742939949036e-01</leafValues></_>
        <_>
          <internalNodes>
            0 -1 462 7.5847769039683044e-05</internalNodes>
          <leafValues>
            -3.6926367878913879e-01 1.1516696214675903e-01</leafValues></_>
        <_>
          <internalNodes>
            0 -1 338 -6.0644797049462795e-03</internalNodes>
          <leafValues>
            3.0322185158729553e-01 -1.4422453939914703e-01</leafValues></_>
        <_>
          <internalNodes>
            0 -1 286 -1.3134362176060677e-02</internalNodes>
          <leafValues>
            3.9344716072082520e-01 -1.4893454313278198e-01</leafValues></_>
        <_>
          <internalNodes>
            0 -1 254 4.9342006444931030e-02</internalNodes>
          <leafValues>
            1.0481529682874680e-01 -4.4848543405532837e-01</leafValues></_>
        <_>
          <internalNodes>
            0 -1 117 2.9381695203483105e-03</internalNodes>
          <leafValues>
            -1.6532413661479950e-01 2.6330181956291199e-01</leafValues></_>
        <_>
          <internalNodes>
            0 -1 183 6.6949096508324146e-03</internalNodes>
          <leafValues>
            8.5598245263099670e-02 -5.6375819444656372e-01</leafValues></_>
        <_>
          <internalNodes>
            0 -1 509 -1.0773402173072100e-03</internalNodes>
          <leafValues>
            2.7795529365539551e-01 -1.6145628690719604e-01</leafValues></_></weakClassifiers></_>
    <!-- stage 10 -->
    <_>
      <maxWeakCount>39</maxWeakCount>
      <stageThreshold>-8.8406115770339966e-01</stageThreshold>
      <weakClassifiers>
        <_>
          <internalNodes>
            0 -1 574 -2.5003874907270074e-04</internalNodes>
          <leafValues>
            -2.0373831689357758e-01 4.6605080366134644e-01</leafValues></_>
        <_>
          <internalNodes>
            0 -1 529 1.9522476941347122e-04</internalNodes>
          <leafValues>
            1.6756609082221985e-01 -5.7218569517135620e-01</leafValues></_>
        <_>
          <internalNodes>
            0 -1 350 8.1875897012650967e-04</internalNodes>
          <leafValues>
            1.4567519724369049e-01 -3.8006964325904846e-01</leafValues></_>
        <_>
          <internalNodes>
            0 -1 598 -1.4909388264641166e-03</internalNodes>
          <leafValues>
            2.8303053975105286e-01 -1.6115133464336395e-01</leafValues></_>
        <_>
          <internalNodes>
            0 -1 259 4.4191165216034278e-05</internalNodes>
          <leafValues>
            -3.0143404006958008e-01 1.5083415806293488e-01</leafValues></_>
        <_>
          <internalNodes>
            0 -1 285 -1.0609198361635208e-03</internalNodes>
          <leafValues>
            2.5739350914955139e-01 -1.9174394011497498e-01</leafValues></_>
        <_>
          <internalNodes>
            0 -1 261 -4.9241478554904461e-03</internalNodes>
          <leafValues>
            3.1611266732215881e-01 -1.6933436691761017e-01</leafValues></_>
        <_>
          <internalNodes>
            0 -1 598 7.3363416595384479e-04</internalNodes>
          <leafValues>
            -2.4143835902214050e-01 2.4438646435737610e-01</leafValues></_>
        <_>
          <internalNodes>
            0 -1 147 -3.3060647547245026e-03</internalNodes>
          <leafValues>
            3.1768301129341125e-01 -1.5078464150428772e-01</leafValues></_>
        <_>
          <internalNodes>
            0 -1 453 1.4933777856640518e-04</internalNodes>
          <leafValues>
            -3.2343128323554993e-01 1.6271884739398956e-01</leafValues></_>
        <_>
          <internalNodes>
            0 -1 451 5.5037101265043020e-04</internalNodes>
          <leafValues>
            8.8964037597179413e-02 -4.3308147788047791e-01</leafValues></_>
        <_>
          <internalNodes>
            0 -1 694 1.6922624781727791e-03</internalNodes>
          <leafValues>
            -1.3459646701812744e-01 3.3835208415985107e-01</leafValues></_>
        <_>
          <internalNodes>
            0 -1 688 -1.4510524924844503e-03</internalNodes>
          <leafValues>
            3.2673692703247070e-01 -1.5813748538494110e-01</leafValues></_>
        <_>
          <internalNodes>
            0 -1 584 1.7687643412500620e-04</internalNodes>
          <leafValues>
            1.2134747207164764e-01 -3.5498723387718201e-01</leafValues></_>
        <_>
          <internalNodes>
            0 -1 599 -9.8473601974546909e-04</internalNodes>
          <leafValues>
            2.4945458769798279e-01 -1.8530917167663574e-01</leafValues></_>
        <_>
          <internalNodes>
            0 -1 584 -5.1218885346315801e-05</internalNodes>
          <leafValues>
            -4.1127729415893555e-01 1.1572637408971786e-01</leafValues></_>
        <_>
          <internalNodes>
            0 -1 517 -2.2436785511672497e-03</internalNodes>
          <leafValues>
            3.5858449339866638e-01 -1.2591110169887543e-01</leafValues></_>
        <_>
          <internalNodes>
            0 -1 641 6.4672683947719634e-05</internalNodes>
          <leafValues>
            -2.5397580862045288e-01 1.8145401775836945e-01</leafValues></_>
        <_>
          <internalNodes>
            0 -1 653 5.2619567140936852e-03</internalNodes>
          <leafValues>
            -1.5954859554767609e-01 2.7979660034179688e-01</leafValues></_>
        <_>
          <internalNodes>
            0 -1 504 -1.0732889641076326e-03</internalNodes>
          <leafValues>
            3.9564606547355652e-01 -9.8633378744125366e-02</leafValues></_>
        <_>
          <internalNodes>
            0 -1 67 -2.8910818509757519e-03</internalNodes>
          <leafValues>
            2.4716612696647644e-01 -1.5574650466442108e-01</leafValues></_>
        <_>
          <internalNodes>
            0 -1 516 2.9900926165282726e-03</internalNodes>
          <leafValues>
            -1.4470796287059784e-01 2.6843959093093872e-01</leafValues></_>
        <_>
          <internalNodes>
            0 -1 448 -1.4238589443266392e-02</internalNodes>
          <leafValues>
            2.5349012017250061e-01 -1.7661993205547333e-01</leafValues></_>
        <_>
          <internalNodes>
            0 -1 500 -1.9339173377375118e-05</internalNodes>
          <leafValues>
            -3.0505663156509399e-01 1.4567479491233826e-01</leafValues></_>
        <_>
          <internalNodes>
            0 -1 591 -3.0725946999154985e-04</internalNodes>
          <leafValues>
            -3.3328148722648621e-01 1.2343755364418030e-01</leafValues></_>
        <_>
          <internalNodes>
            0 -1 123 -5.5630486458539963e-03</internalNodes>
          <leafValues>
            2.8174546360969543e-01 -1.3689418137073517e-01</leafValues></_>
        <_>
          <internalNodes>
            0 -1 629 1.5755895583424717e-04</internalNodes>
          <leafValues>
            -2.0367464423179626e-01 1.7736767232418060e-01</leafValues></_>
        <_>
          <internalNodes>
            0 -1 617 -3.2785307848826051e-04</internalNodes>
          <leafValues>
            2.4237628281116486e-01 -1.5971763432025909e-01</leafValues></_>
        <_>
          <internalNodes>
            0 -1 385 7.9248815774917603e-02</internalNodes>
          <leafValues>
            5.2417345345020294e-02 -8.1094264984130859e-01</leafValues></_>
        <_>
          <internalNodes>
            0 -1 398 -3.9840182289481163e-03</internalNodes>
          <leafValues>
            -7.2292184829711914e-01 3.9843346923589706e-02</leafValues></_>
        <_>
          <internalNodes>
            0 -1 262 -2.7322461828589439e-03</internalNodes>
          <leafValues>
            2.3428727686405182e-01 -1.6453470289707184e-01</leafValues></_>
        <_>
          <internalNodes>
            0 -1 105 -5.4994423408061266e-04</internalNodes>
          <leafValues>
            2.2354030609130859e-01 -1.5542235970497131e-01</leafValues></_>
        <_>
          <internalNodes>
            0 -1 559 -2.3123773280531168e-04</internalNodes>
          <leafValues>
            -2.9416036605834961e-01 1.2411242723464966e-01</leafValues></_>
        <_>
          <internalNodes>
            0 -1 251 -4.3299827724695206e-02</internalNodes>
          <leafValues>
            2.6448532938957214e-01 -1.4999525249004364e-01</leafValues></_>
        <_>
          <internalNodes>
            0 -1 406 5.9608639276120812e-05</internalNodes>
          <leafValues>
            -2.9311329126358032e-01 1.3659495115280151e-01</leafValues></_>
        <_>
          <internalNodes>
            0 -1 331 -2.0812125876545906e-03</internalNodes>
          <leafValues>
            3.0658891797065735e-01 -1.5740148723125458e-01</leafValues></_>
        <_>
          <internalNodes>
            0 -1 329 4.6960376494098455e-05</internalNodes>
          <leafValues>
            -2.5816774368286133e-01 1.7942018806934357e-01</leafValues></_>
        <_>
          <internalNodes>
            0 -1 291 9.8731182515621185e-04</internalNodes>
          <leafValues>
            7.7849283814430237e-02 -4.6069923043251038e-01</leafValues></_>
        <_>
          <internalNodes>
            0 -1 80 -3.7311937659978867e-02</internalNodes>
          <leafValues>
            3.0293843150138855e-01 -1.3284151256084442e-01</leafValues></_></weakClassifiers></_>
    <!-- stage 11 -->
    <_>
      <maxWeakCount>40</maxWeakCount>
      <stageThreshold>-7.9254287481307983e-01</stageThreshold>
      <weakClassifiers>
        <_>
          <internalNodes>
            0 -1 495 4.0907555376179516e-04</internalNodes>
          <leafValues>
            4.4591030478477478e-01 -2.6760563254356384e-01</leafValues></_>
        <_>
          <internalNodes>
            0 -1 582 3.1235272763296962e-04</internalNodes>
          <leafValues>
            -3.3553415536880493e-01 2.0584380626678467e-01</leafValues></_>
        <_>
          <internalNodes>
            0 -1 575 1.9823941402137280e-03</internalNodes>
          <leafValues>
            1.3399831950664520e-01 -3.8493978977203369e-01</leafValues></_>
        <_>
          <internalNodes>
            0 -1 201 5.7648167014122009e-02</internalNodes>
          <leafValues>
            -8.5440814495086670e-02 6.1152547597885132e-01</leafValues></_>
        <_>
          <internalNodes>
            0 -1 551 -1.2911593075841665e-03</internalNodes>
          <leafValues>
            3.5197618603706360e-01 -1.6639970242977142e-01</leafValues></_>
        <_>
          <internalNodes>
            0 -1 422 -1.5491264639422297e-04</internalNodes>
          <leafValues>
            -2.9544487595558167e-01 1.7088407278060913e-01</leafValues></_>
        <_>
          <internalNodes>
            0 -1 590 1.2782721314579248e-03</internalNodes>
          <leafValues>
            -1.7212431132793427e-01 2.8727844357490540e-01</leafValues></_>
        <_>
          <internalNodes>
            0 -1 531 -2.5107571855187416e-03</internalNodes>
          <leafValues>
            2.7632012963294983e-01 -1.7273876070976257e-01</leafValues></_>
        <_>
          <internalNodes>
            0 -1 227 -6.7128409864380956e-04</internalNodes>
          <leafValues>
            2.7521637082099915e-01 -1.6308897733688354e-01</leafValues></_>
        <_>
          <internalNodes>
            0 -1 397 1.1963030556216836e-04</internalNodes>
          <leafValues>
            -3.6561945080757141e-01 1.2151984125375748e-01</leafValues></_>
        <_>
          <internalNodes>
            0 -1 397 6.4461264992132783e-04</internalNodes>
          <leafValues>
            1.2860658764839172e-01 -4.0630716085433960e-01</leafValues></_>
        <_>
          <internalNodes>
            0 -1 276 5.3520401706919074e-04</internalNodes>
          <leafValues>
            -1.5068341791629791e-01 3.3141839504241943e-01</leafValues></_>
        <_>
          <internalNodes>
            0 -1 276 -1.8949681543745100e-04</internalNodes>
          <leafValues>
            2.6243966817855835e-01 -1.9205887615680695e-01</leafValues></_>
        <_>
          <internalNodes>
            0 -1 669 7.2321377228945494e-04</internalNodes>
          <leafValues>
            -1.6611184179782867e-01 2.6054388284683228e-01</leafValues></_>
        <_>
          <internalNodes>
            0 -1 408 9.8055880516767502e-04</internalNodes>
          <leafValues>
            -1.4914287626743317e-01 2.7278634905815125e-01</leafValues></_>
        <_>
          <internalNodes>
            0 -1 269 1.0677130892872810e-02</internalNodes>
          <leafValues>
            -1.5381895005702972e-01 2.9600262641906738e-01</leafValues></_>
        <_>
          <internalNodes>
            0 -1 476 2.3486142163164914e-04</internalNodes>
          <leafValues>
            1.1400906741619110e-01 -3.5747361183166504e-01</leafValues></_>
        <_>
          <internalNodes>
            0 -1 578 -1.7113821741077118e-05</internalNodes>
          <leafValues>
            -3.0067515373229980e-01 1.7181281745433807e-01</leafValues></_>
        <_>
          <internalNodes>
            0 -1 501 -2.4436198873445392e-04</internalNodes>
          <leafValues>
            -3.3640027046203613e-01 1.1653217673301697e-01</leafValues></_>
        <_>
          <internalNodes>
            0 -1 531 4.4735763221979141e-03</internalNodes>
          <leafValues>
            -1.4998380839824677e-01 2.6031461358070374e-01</leafValues></_>
        <_>
          <internalNodes>
            0 -1 600 -4.2989337816834450e-03</internalNodes>
          <leafValues>
            2.3917567729949951e-01 -1.9769383966922760e-01</leafValues></_>
        <_>
          <internalNodes>
            0 -1 600 4.6365344896912575e-03</internalNodes>
          <leafValues>
            -1.5036803483963013e-01 3.1255364418029785e-01</leafValues></_>
        <_>
          <internalNodes>
            0 -1 513 1.7113821741077118e-05</internalNodes>
          <leafValues>
            1.3795168697834015e-01 -2.7195748686790466e-01</leafValues></_>
        <_>
          <internalNodes>
            0 -1 508 -1.8562832847237587e-03</internalNodes>
          <leafValues>
            2.5005638599395752e-01 -1.5732567012310028e-01</leafValues></_>
        <_>
          <internalNodes>
            0 -1 525 1.5837305909371935e-05</internalNodes>
          <leafValues>
            1.4330899715423584e-01 -2.9260605573654175e-01</leafValues></_>
        <_>
          <internalNodes>
            0 -1 469 -7.6273706508800387e-04</internalNodes>
          <leafValues>
            -4.8104849457740784e-01 7.5484931468963623e-02</leafValues></_>
        <_>
          <internalNodes>
            0 -1 124 -9.6477176994085312e-03</internalNodes>
          <leafValues>
            3.6290928721427917e-01 -1.0269066691398621e-01</leafValues></_>
        <_>
          <internalNodes>
            0 -1 233 -2.3269422352313995e-02</internalNodes>
          <leafValues>
            4.3230646848678589e-01 -7.3429688811302185e-02</leafValues></_>
        <_>
          <internalNodes>
            0 -1 237 5.5908527428982779e-05</internalNodes>
          <leafValues>
            -2.2949625551700592e-01 1.6756360232830048e-01</leafValues></_>
        <_>
          <internalNodes>
            0 -1 461 1.7517041414976120e-02</internalNodes>
          <leafValues>
            3.7117525935173035e-02 -8.7465322017669678e-01</leafValues></_>
        <_>
          <internalNodes>
            0 -1 552 -1.2091076932847500e-03</internalNodes>
          <leafValues>
            2.1738687157630920e-01 -1.7463228106498718e-01</leafValues></_>
        <_>
          <internalNodes>
            0 -1 657 1.2923447415232658e-02</internalNodes>
          <leafValues>
            -1.4088332653045654e-01 2.9050937294960022e-01</leafValues></_>
        <_>
          <internalNodes>
            0 -1 628 -1.6808813597890548e-05</internalNodes>
          <leafValues>
            -2.8475952148437500e-01 1.2638622522354126e-01</leafValues></_>
        <_>
          <internalNodes>
            0 -1 554 5.3765525808557868e-04</internalNodes>
          <leafValues>
            -1.6619446873664856e-01 2.3661813139915466e-01</leafValues></_>
        <_>
          <internalNodes>
            0 -1 86 5.5029705166816711e-02</internalNodes>
          <leafValues>
            6.1664737761020660e-02 -6.1724132299423218e-01</leafValues></_>
        <_>
          <internalNodes>
            0 -1 154 3.6497786641120911e-02</internalNodes>
          <leafValues>
            -6.5643556416034698e-02 6.0119837522506714e-01</leafValues></_>
        <_>
          <internalNodes>
            0 -1 36 -1.2518784496933222e-03</internalNodes>
          <leafValues>
            2.6091107726097107e-01 -1.4189991354942322e-01</leafValues></_>
        <_>
          <internalNodes>
            0 -1 594 6.0302636120468378e-04</internalNodes>
          <leafValues>
            1.5206730365753174e-01 -2.5264808535575867e-01</leafValues></_>
        <_>
          <internalNodes>
            0 -1 550 -1.6463231295347214e-03</internalNodes>
          <leafValues>
            2.2321534156799316e-01 -1.7693755030632019e-01</leafValues></_>
        <_>
          <internalNodes>
            0 -1 337 -7.8830301761627197e-02</internalNodes>
          <leafValues>
            -8.4024626016616821e-01 4.4871065765619278e-02</leafValues></_></weakClassifiers></_>
    <!-- stage 12 -->
    <_>
      <maxWeakCount>45</maxWeakCount>
      <stageThreshold>-8.3405762910842896e-01</stageThreshold>
      <weakClassifiers>
        <_>
          <internalNodes>
            0 -1 524 -1.9576418708311394e-05</internalNodes>
          <leafValues>
            -3.3165830373764038e-01 4.4830581545829773e-01</leafValues></_>
        <_>
          <internalNodes>
            0 -1 468 -2.2029591491445899e-05</internalNodes>
          <leafValues>
            -4.9251499772071838e-01 1.4142735302448273e-01</leafValues></_>
        <_>
          <internalNodes>
            0 -1 297 1.3589749578386545e-03</internalNodes>
          <leafValues>
            1.8659026920795441e-01 -3.1212362647056580e-01</leafValues></_>
        <_>
          <internalNodes>
            0 -1 19 -5.9693222865462303e-03</internalNodes>
          <leafValues>
            3.2406458258628845e-01 -1.4985091984272003e-01</leafValues></_>
        <_>
          <internalNodes>
            0 -1 238 5.5215659813256934e-05</internalNodes>
          <leafValues>
            -3.1012642383575439e-01 1.3954307138919830e-01</leafValues></_>
        <_>
          <internalNodes>
            0 -1 348 1.6070553101599216e-04</internalNodes>
          <leafValues>
            1.0007506608963013e-01 -3.6744034290313721e-01</leafValues></_>
        <_>
          <internalNodes>
            0 -1 526 1.9837960280710831e-05</internalNodes>
          <leafValues>
            1.9872482120990753e-01 -2.2549898922443390e-01</leafValues></_>
        <_>
          <internalNodes>
            0 -1 665 -1.0283556766808033e-03</internalNodes>
          <leafValues>
            2.8931772708892822e-01 -1.6021417081356049e-01</leafValues></_>
        <_>
          <internalNodes>
            0 -1 585 2.3340247571468353e-03</internalNodes>
          <leafValues>
            -1.4274939894676208e-01 3.2949686050415039e-01</leafValues></_>
        <_>
          <internalNodes>
            0 -1 587 -1.9674608483910561e-03</internalNodes>
          <leafValues>
            2.2990716993808746e-01 -1.8773819506168365e-01</leafValues></_>
        <_>
          <internalNodes>
            0 -1 402 5.9480662457644939e-04</internalNodes>
          <leafValues>
            1.2585432827472687e-01 -3.4440404176712036e-01</leafValues></_>
        <_>
          <internalNodes>
            0 -1 324 9.3423426733352244e-05</internalNodes>
          <leafValues>
            -2.7398198843002319e-01 1.4196315407752991e-01</leafValues></_>
        <_>
          <internalNodes>
            0 -1 647 2.2219575475901365e-03</internalNodes>
          <leafValues>
            -1.5701170265674591e-01 2.8139594197273254e-01</leafValues></_>
        <_>
          <internalNodes>
            0 -1 230 2.9321189969778061e-02</internalNodes>
          <leafValues>
            -1.2166394293308258e-01 3.2113435864448547e-01</leafValues></_>
        <_>
          <internalNodes>
            0 -1 77 5.6709740310907364e-03</internalNodes>
          <leafValues>
            -1.1392787843942642e-01 3.5023269057273865e-01</leafValues></_>
        <_>
          <internalNodes>
            0 -1 560 6.7279761424288154e-05</internalNodes>
          <leafValues>
            -2.5053688883781433e-01 1.6399836540222168e-01</leafValues></_>
        <_>
          <internalNodes>
            0 -1 351 -2.9892739257775247e-04</internalNodes>
          <leafValues>
            -2.8754878044128418e-01 1.4453472197055817e-01</leafValues></_>
        <_>
          <internalNodes>
            0 -1 164 -3.8810335099697113e-03</internalNodes>
          <leafValues>
            2.4463881552219391e-01 -1.7615550756454468e-01</leafValues></_>
        <_>
          <internalNodes>
            0 -1 4 -4.2339809238910675e-02</internalNodes>
          <leafValues>
            6.5706151723861694e-01 -4.9112249165773392e-02</leafValues></_>
        <_>
          <internalNodes>
            0 -1 137 6.5677813836373389e-05</internalNodes>
          <leafValues>
            -2.2112944722175598e-01 1.6606412827968597e-01</leafValues></_>
        <_>
          <internalNodes>
            0 -1 616 1.0583166033029556e-02</internalNodes>
          <leafValues>
            7.7714346349239349e-02 -4.7489678859710693e-01</leafValues></_>
        <_>
          <internalNodes>
            0 -1 171 -1.8548209220170975e-02</internalNodes>
          <leafValues>
            2.8403118252754211e-01 -1.3132439553737640e-01</leafValues></_>
        <_>
          <internalNodes>
            0 -1 46 -9.5022674649953842e-03</internalNodes>
          <leafValues>
            2.6582959294319153e-01 -1.6076146066188812e-01</leafValues></_>
        <_>
          <internalNodes>
            0 -1 44 2.4307870864868164e-01</internalNodes>
          <leafValues>
            4.8635378479957581e-02 -7.3474323749542236e-01</leafValues></_>
        <_>
          <internalNodes>
            0 -1 400 -1.9321247236803174e-05</internalNodes>
          <leafValues>
            -3.5117796063423157e-01 1.1250621080398560e-01</leafValues></_>
        <_>
          <internalNodes>
            0 -1 25 5.4626837372779846e-03</internalNodes>
          <leafValues>
            -1.1809232831001282e-01 3.0930978059768677e-01</leafValues></_>
        <_>
          <internalNodes>
            0 -1 66 -7.3711073491722345e-04</internalNodes>
          <leafValues>
            2.3013362288475037e-01 -1.6162961721420288e-01</leafValues></_>
        <_>
          <internalNodes>
            0 -1 654 -3.1061202287673950e-02</internalNodes>
          <leafValues>
            3.1506612896919250e-01 -1.1288651823997498e-01</leafValues></_>
        <_>
          <internalNodes>
            0 -1 654 2.1231893450021744e-02</internalNodes>
          <leafValues>
            -1.0729727894067764e-01 4.0142586827278137e-01</leafValues></_>
        <_>
          <internalNodes>
            0 -1 386 2.5844416813924909e-04</internalNodes>
          <leafValues>
            1.1261627078056335e-01 -3.5549923777580261e-01</leafValues></_>
        <_>
          <internalNodes>
            0 -1 389 1.5283323591575027e-04</internalNodes>
          <leafValues>
            -2.7410551905632019e-01 1.5174284577369690e-01</leafValues></_>
        <_>
          <internalNodes>
            0 -1 445 2.3405472165904939e-04</internalNodes>
          <leafValues>
            2.4681051075458527e-01 -1.6709974408149719e-01</leafValues></_>
        <_>
          <internalNodes>
            0 -1 546 8.7825486843939871e-05</internalNodes>
          <leafValues>
            -3.3956399559974670e-01 1.1302633583545685e-01</leafValues></_>
        <_>
          <internalNodes>
            0 -1 630 -2.6725386269390583e-03</internalNodes>
          <leafValues>
            3.1314283609390259e-01 -1.3378314673900604e-01</leafValues></_>
        <_>
          <internalNodes>
            0 -1 499 1.4695737045258284e-03</internalNodes>
          <leafValues>
            -1.8137022852897644e-01 2.3046107590198517e-01</leafValues></_>
        <_>
          <internalNodes>
            0 -1 604 -3.8105333223938942e-03</internalNodes>
          <leafValues>
            2.1045722067356110e-01 -1.8257483839988708e-01</leafValues></_>
        <_>
          <internalNodes>
            0 -1 475 3.8687136024236679e-02</internalNodes>
          <leafValues>
            4.5556589961051941e-02 -9.3874359130859375e-01</leafValues></_>
        <_>
          <internalNodes>
            0 -1 596 2.7821771800518036e-04</internalNodes>
          <leafValues>
            1.0058528184890747e-01 -3.4531906247138977e-01</leafValues></_>
        <_>
          <internalNodes>
            0 -1 480 -6.3392857555299997e-04</internalNodes>
          <leafValues>
            2.7590849995613098e-01 -1.3667181134223938e-01</leafValues></_>
        <_>
          <internalNodes>
            0 -1 683 -2.2741109132766724e-03</internalNodes>
          <leafValues>
            3.1928941607475281e-01 -1.0896495729684830e-01</leafValues></_>
        <_>
          <internalNodes>
            0 -1 655 6.9273686967790127e-03</internalNodes>
          <leafValues>
            -1.5230911970138550e-01 2.4685122072696686e-01</leafValues></_>
        <_>
          <internalNodes>
            0 -1 580 -5.6474434677511454e-04</internalNodes>
          <leafValues>
            -3.8162612915039062e-01 9.6877790987491608e-02</leafValues></_>
        <_>
          <internalNodes>
            0 -1 601 4.8819105140864849e-03</internalNodes>
          <leafValues>
            -1.5273229777812958e-01 2.4453638494014740e-01</leafValues></_>
        <_>
          <internalNodes>
            0 -1 153 6.0059173847548664e-05</internalNodes>
          <leafValues>
            -2.1054497361183167e-01 1.5868024528026581e-01</leafValues></_>
        <_>
          <internalNodes>
            0 -1 177 -1.3757023960351944e-02</internalNodes>
          <leafValues>
            2.9685455560684204e-01 -1.4569911360740662e-01</leafValues></_></weakClassifiers></_>
    <!-- stage 13 -->
    <_>
      <maxWeakCount>46</maxWeakCount>
      <stageThreshold>-8.6307811737060547e-01</stageThreshold>
      <weakClassifiers>
        <_>
          <internalNodes>
            0 -1 529 -2.1636915334966034e-04</internalNodes>
          <leafValues>
            -2.2701688110828400e-01 4.7115829586982727e-01</leafValues></_>
        <_>
          <internalNodes>
            0 -1 466 1.8572859698906541e-04</internalNodes>
          <leafValues>
            1.4828540384769440e-01 -4.5714393258094788e-01</leafValues></_>
        <_>
          <internalNodes>
            0 -1 355 -1.5673247980885208e-04</internalNodes>
          <leafValues>
            -2.8194203972816467e-01 1.5842998027801514e-01</leafValues></_>
        <_>
          <internalNodes>
            0 -1 424 1.9524825620464981e-04</internalNodes>
          <leafValues>
            1.2741744518280029e-01 -3.4254485368728638e-01</leafValues></_>
        <_>
          <internalNodes>
            0 -1 277 -1.3508143601939082e-03</internalNodes>
          <leafValues>
            2.7844569087028503e-01 -1.4458750188350677e-01</leafValues></_>
        <_>
          <internalNodes>
            0 -1 279 2.5032664416357875e-04</internalNodes>
          <leafValues>
            -1.6237172484397888e-01 2.8992637991905212e-01</leafValues></_>
        <_>
          <internalNodes>
            0 -1 149 1.3728433288633823e-02</internalNodes>
          <leafValues>
            8.6312837898731232e-02 -4.5656356215476990e-01</leafValues></_>
        <_>
          <internalNodes>
            0 -1 279 -8.7427929975092411e-04</internalNodes>
          <leafValues>
            2.2055055201053619e-01 -1.9897654652595520e-01</leafValues></_>
        <_>
          <internalNodes>
            0 -1 271 1.2725531123578548e-03</internalNodes>
          <leafValues>
            -1.5072679519653320e-01 2.7871114015579224e-01</leafValues></_>
        <_>
          <internalNodes>
            0 -1 674 8.4385613445192575e-04</internalNodes>
          <leafValues>
            -1.3079741597175598e-01 2.5780498981475830e-01</leafValues></_>
        <_>
          <internalNodes>
            0 -1 460 -3.3949461067095399e-04</internalNodes>
          <leafValues>
            -4.6275612711906433e-01 9.0237498283386230e-02</leafValues></_>
        <_>
          <internalNodes>
            0 -1 698 5.1251432159915566e-04</internalNodes>
          <leafValues>
            -1.3175618648529053e-01 3.0771982669830322e-01</leafValues></_>
        <_>
          <internalNodes>
            0 -1 506 -2.5256123626604676e-04</internalNodes>
          <leafValues>
            2.2047954797744751e-01 -1.5670412778854370e-01</leafValues></_>
        <_>
          <internalNodes>
            0 -1 581 1.2928634532727301e-04</internalNodes>
          <leafValues>
            -2.8799015283584595e-01 1.2615792453289032e-01</leafValues></_>
        <_>
          <internalNodes>
            0 -1 581 6.2930164858698845e-04</internalNodes>
          <leafValues>
            1.1292514950037003e-01 -3.5416495800018311e-01</leafValues></_>
        <_>
          <internalNodes>
            0 -1 325 4.4490705477073789e-05</internalNodes>
          <leafValues>
            1.3544626533985138e-01 -2.5720623135566711e-01</leafValues></_>
        <_>
          <internalNodes>
            0 -1 55 5.5582234635949135e-03</internalNodes>
          <leafValues>
            -1.2602451443672180e-01 3.3170208334922791e-01</leafValues></_>
        <_>
          <internalNodes>
            0 -1 336 -1.2328126467764378e-03</internalNodes>
          <leafValues>
            2.6282724738121033e-01 -1.4006423950195312e-01</leafValues></_>
        <_>
          <internalNodes>
            0 -1 272 -2.9602416325360537e-03</internalNodes>
          <leafValues>
            2.7841752767562866e-01 -1.5183965861797333e-01</leafValues></_>
        <_>
          <internalNodes>
            0 -1 399 -7.6505705714225769e-02</internalNodes>
          <leafValues>
            -7.7096825838088989e-01 4.5345515012741089e-02</leafValues></_>
        <_>
          <internalNodes>
            0 -1 231 -6.3518779352307320e-03</internalNodes>
          <leafValues>
            -7.2366839647293091e-01 4.3803445994853973e-02</leafValues></_>
        <_>
          <internalNodes>
            0 -1 156 8.0512166023254395e-03</internalNodes>
          <leafValues>
            -1.0263258963823318e-01 3.6672979593276978e-01</leafValues></_>
        <_>
          <internalNodes>
            0 -1 597 -2.6925449492409825e-04</internalNodes>
          <leafValues>
            -2.8848713636398315e-01 1.3118188083171844e-01</leafValues></_>
        <_>
          <internalNodes>
            0 -1 479 1.0668521281331778e-04</internalNodes>
          <leafValues>
            -2.9243716597557068e-01 1.0877510905265808e-01</leafValues></_>
        <_>
          <internalNodes>
            0 -1 384 1.5755314379930496e-02</internalNodes>
          <leafValues>
            -1.1985848844051361e-01 3.0514737963676453e-01</leafValues></_>
        <_>
          <internalNodes>
            0 -1 383 -5.6854039430618286e-03</internalNodes>
          <leafValues>
            3.5790190100669861e-01 -1.2401559948921204e-01</leafValues></_>
        <_>
          <internalNodes>
            0 -1 584 2.0374250016175210e-04</internalNodes>
          <leafValues>
            1.1084508150815964e-01 -3.3770984411239624e-01</leafValues></_>
        <_>
          <internalNodes>
            0 -1 302 -7.0368498563766479e-04</internalNodes>
          <leafValues>
            2.1631017327308655e-01 -1.7536050081253052e-01</leafValues></_>
        <_>
          <internalNodes>
            0 -1 248 2.9118964448571205e-03</internalNodes>
          <leafValues>
            -1.7911820113658905e-01 2.7081093192100525e-01</leafValues></_>
        <_>
          <internalNodes>
            0 -1 327 -4.3350769556127489e-04</internalNodes>
          <leafValues>
            -2.6059111952781677e-01 1.7007301747798920e-01</leafValues></_>
        <_>
          <internalNodes>
            0 -1 649 -7.3525449261069298e-04</internalNodes>
          <leafValues>
            2.4626563489437103e-01 -1.4202481508255005e-01</leafValues></_>
        <_>
          <internalNodes>
            0 -1 62 1.3393780682235956e-03</internalNodes>
          <leafValues>
            -1.2861983478069305e-01 2.5184246897697449e-01</leafValues></_>
        <_>
          <internalNodes>
            0 -1 43 -5.6050185114145279e-02</internalNodes>
          <leafValues>
            4.7203838825225830e-01 -8.1815093755722046e-02</leafValues></_>
        <_>
          <internalNodes>
            0 -1 378 5.0283088057767600e-05</internalNodes>
          <leafValues>
            -2.1891435980796814e-01 1.5165755152702332e-01</leafValues></_>
        <_>
          <internalNodes>
            0 -1 368 -1.0789157822728157e-03</internalNodes>
          <leafValues>
            2.8123113512992859e-01 -1.3352555036544800e-01</leafValues></_>
        <_>
          <internalNodes>
            0 -1 546 7.2121656558010727e-05</internalNodes>
          <leafValues>
            -3.3331370353698730e-01 9.6122853457927704e-02</leafValues></_>
        <_>
          <internalNodes>
            0 -1 281 1.2050070799887180e-03</internalNodes>
          <leafValues>
            -1.3769960403442383e-01 2.6758870482444763e-01</leafValues></_>
        <_>
          <internalNodes>
            0 -1 103 1.1353872716426849e-02</internalNodes>
          <leafValues>
            7.1213744580745697e-02 -5.0072193145751953e-01</leafValues></_>
        <_>
          <internalNodes>
            0 -1 220 -2.0653405226767063e-03</internalNodes>
          <leafValues>
            2.4216368794441223e-01 -1.9111578166484833e-01</leafValues></_>
        <_>
          <internalNodes>
            0 -1 168 4.2270757257938385e-03</internalNodes>
          <leafValues>
            -1.1726551502943039e-01 3.3193439245223999e-01</leafValues></_>
        <_>
          <internalNodes>
            0 -1 573 3.2579037360846996e-04</internalNodes>
          <leafValues>
            9.3570075929164886e-02 -4.4770073890686035e-01</leafValues></_>
        <_>
          <internalNodes>
            0 -1 246 7.5429729185998440e-03</internalNodes>
          <leafValues>
            -1.5530364215373993e-01 2.3090213537216187e-01</leafValues></_>
        <_>
          <internalNodes>
            0 -1 437 -6.3334801234304905e-04</internalNodes>
          <leafValues>
            2.0733152329921722e-01 -1.8569415807723999e-01</leafValues></_>
        <_>
          <internalNodes>
            0 -1 163 5.0456367898732424e-04</internalNodes>
          <leafValues>
            -1.3950800895690918e-01 2.9287016391754150e-01</leafValues></_>
        <_>
          <internalNodes>
            0 -1 209 6.9226880441419780e-05</internalNodes>
          <leafValues>
            -2.6968082785606384e-01 1.6335356235504150e-01</leafValues></_>
        <_>
          <internalNodes>
            0 -1 572 5.3074309107614681e-05</internalNodes>
          <leafValues>
            -2.5445848703384399e-01 1.3942234218120575e-01</leafValues></_></weakClassifiers></_>
    <!-- stage 14 -->
    <_>
      <maxWeakCount>40</maxWeakCount>
      <stageThreshold>-8.0206608772277832e-01</stageThreshold>
      <weakClassifiers>
        <_>
          <internalNodes>
            0 -1 459 -2.0720048269140534e-05</internalNodes>
          <leafValues>
            -3.1843575835227966e-01 4.3296328186988831e-01</leafValues></_>
        <_>
          <internalNodes>
            0 -1 530 -1.8603025819174945e-04</internalNodes>
          <leafValues>
            -3.9512014389038086e-01 1.9398124516010284e-01</leafValues></_>
        <_>
          <internalNodes>
            0 -1 673 -1.0887170210480690e-03</internalNodes>
          <leafValues>
            2.8727859258651733e-01 -1.4523583650588989e-01</leafValues></_>
        <_>
          <internalNodes>
            0 -1 514 -1.6847722872626036e-04</internalNodes>
          <leafValues>
            -3.3915281295776367e-01 1.2806822359561920e-01</leafValues></_>
        <_>
          <internalNodes>
            0 -1 30 -4.5078974217176437e-03</internalNodes>
          <leafValues>
            2.9323652386665344e-01 -1.2872497737407684e-01</leafValues></_>
        <_>
          <internalNodes>
            0 -1 692 -1.2250468134880066e-03</internalNodes>
          <leafValues>
            2.7314865589141846e-01 -1.7257167398929596e-01</leafValues></_>
        <_>
          <internalNodes>
            0 -1 444 1.0406804358353838e-04</internalNodes>
          <leafValues>
            1.3349962234497070e-01 -3.2783889770507812e-01</leafValues></_>
        <_>
          <internalNodes>
            0 -1 486 1.9063944928348064e-03</internalNodes>
          <leafValues>
            -1.3022814691066742e-01 2.9676035046577454e-01</leafValues></_>
        <_>
          <internalNodes>
            0 -1 484 -4.6008845674805343e-04</internalNodes>
          <leafValues>
            2.7339476346969604e-01 -2.2566697001457214e-01</leafValues></_>
        <_>
          <internalNodes>
            0 -1 559 6.1220600036904216e-04</internalNodes>
          <leafValues>
            1.0587497800588608e-01 -4.2568799853324890e-01</leafValues></_>
        <_>
          <internalNodes>
            0 -1 535 -2.3207807680591941e-04</internalNodes>
          <leafValues>
            -4.2685818672180176e-01 8.9893788099288940e-02</leafValues></_>
        <_>
          <internalNodes>
            0 -1 484 5.3151044994592667e-04</internalNodes>
          <leafValues>
            -1.8495377898216248e-01 2.5612491369247437e-01</leafValues></_>
        <_>
          <internalNodes>
            0 -1 85 1.1897224612766877e-04</internalNodes>
          <leafValues>
            -2.1762897074222565e-01 1.6735918819904327e-01</leafValues></_>
        <_>
          <internalNodes>
            0 -1 295 4.9721595132723451e-05</internalNodes>
          <leafValues>
            -2.6511567831039429e-01 1.3709688186645508e-01</leafValues></_>
        <_>
          <internalNodes>
            0 -1 238 7.5501773972064257e-04</internalNodes>
          <leafValues>
            1.4533104002475739e-01 -2.8185468912124634e-01</leafValues></_>
        <_>
          <internalNodes>
            0 -1 235 3.2108610030263662e-03</internalNodes>
          <leafValues>
            -1.4023751020431519e-01 3.0658760666847229e-01</leafValues></_>
        <_>
          <internalNodes>
            0 -1 89 5.3507159464061260e-03</internalNodes>
          <leafValues>
            -1.5016451478004456e-01 2.9537290334701538e-01</leafValues></_>
        <_>
          <internalNodes>
            0 -1 70 -3.6401173565536737e-04</internalNodes>
          <leafValues>
            2.3650629818439484e-01 -1.6987007856369019e-01</leafValues></_>
        <_>
          <internalNodes>
            0 -1 648 -5.7429377920925617e-03</internalNodes>
          <leafValues>
            2.4963067471981049e-01 -1.3798962533473969e-01</leafValues></_>
        <_>
          <internalNodes>
            0 -1 640 1.3431269675493240e-02</internalNodes>
          <leafValues>
            5.0467282533645630e-02 -7.6685726642608643e-01</leafValues></_>
        <_>
          <internalNodes>
            0 -1 588 -1.5102468023542315e-04</internalNodes>
          <leafValues>
            -2.7755916118621826e-01 1.5461635589599609e-01</leafValues></_>
        <_>
          <internalNodes>
            0 -1 421 6.4796273363754153e-05</internalNodes>
          <leafValues>
            -2.6304647326469421e-01 1.4261414110660553e-01</leafValues></_>
        <_>
          <internalNodes>
            0 -1 652 -2.7753612957894802e-03</internalNodes>
          <leafValues>
            2.0270591974258423e-01 -1.8300236761569977e-01</leafValues></_>
        <_>
          <internalNodes>
            0 -1 215 1.4403443783521652e-02</internalNodes>
          <leafValues>
            -1.0155136883258820e-01 4.3735823035240173e-01</leafValues></_>
        <_>
          <internalNodes>
            0 -1 226 -4.8917564563453197e-03</internalNodes>
          <leafValues>
            2.2220911085605621e-01 -1.5918946266174316e-01</leafValues></_>
        <_>
          <internalNodes>
            0 -1 416 -1.1396387126296759e-03</internalNodes>
          <leafValues>
            2.6075220108032227e-01 -1.3708965480327606e-01</leafValues></_>
        <_>
          <internalNodes>
            0 -1 522 -2.6838498888537288e-04</internalNodes>
          <leafValues>
            -3.2510375976562500e-01 1.1796384304761887e-01</leafValues></_>
        <_>
          <internalNodes>
            0 -1 83 8.7184980511665344e-03</internalNodes>
          <leafValues>
            -1.5308190882205963e-01 2.4242973327636719e-01</leafValues></_>
        <_>
          <internalNodes>
            0 -1 460 2.1140767785254866e-05</internalNodes>
          <leafValues>
            1.3463765382766724e-01 -2.7799716591835022e-01</leafValues></_>
        <_>
          <internalNodes>
            0 -1 222 5.1313423318788409e-04</internalNodes>
          <leafValues>
            -1.4992661774158478e-01 2.2750882804393768e-01</leafValues></_>
        <_>
          <internalNodes>
            0 -1 178 -1.1499284300953150e-03</internalNodes>
          <leafValues>
            2.5311285257339478e-01 -1.5144462883472443e-01</leafValues></_>
        <_>
          <internalNodes>
            0 -1 660 1.6783835599198937e-04</internalNodes>
          <leafValues>
            1.2906238436698914e-01 -2.9221981763839722e-01</leafValues></_>
        <_>
          <internalNodes>
            0 -1 369 3.1644804403185844e-04</internalNodes>
          <leafValues>
            -1.5487618744373322e-01 2.2649307548999786e-01</leafValues></_>
        <_>
          <internalNodes>
            0 -1 375 -2.5082547217607498e-02</internalNodes>
          <leafValues>
            3.5635167360305786e-01 -9.6091516315937042e-02</leafValues></_>
        <_>
          <internalNodes>
            0 -1 528 1.6486897948198020e-04</internalNodes>
          <leafValues>
            -2.6916423439979553e-01 1.6228210926055908e-01</leafValues></_>
        <_>
          <internalNodes>
            0 -1 523 -8.0809631617739797e-04</internalNodes>
          <leafValues>
            2.4906277656555176e-01 -1.6138346493244171e-01</leafValues></_>
        <_>
          <internalNodes>
            0 -1 546 3.9671279955655336e-04</internalNodes>
          <leafValues>
            1.4682340621948242e-01 -2.1827565133571625e-01</leafValues></_>
        <_>
          <internalNodes>
            0 -1 125 -5.0232950598001480e-03</internalNodes>
          <leafValues>
            3.4930726885795593e-01 -1.0366914421319962e-01</leafValues></_>
        <_>
          <internalNodes>
            0 -1 691 -8.3168735727667809e-04</internalNodes>
          <leafValues>
            2.8703477978706360e-01 -1.0435406118631363e-01</leafValues></_>
        <_>
          <internalNodes>
            0 -1 691 4.7555210767313838e-04</internalNodes>
          <leafValues>
            -1.3729558885097504e-01 2.5773048400878906e-01</leafValues></_></weakClassifiers></_>
    <!-- stage 15 -->
    <_>
      <maxWeakCount>44</maxWeakCount>
      <stageThreshold>-6.9113403558731079e-01</stageThreshold>
      <weakClassifiers>
        <_>
          <internalNodes>
            0 -1 537 5.9426165535114706e-05</internalNodes>
          <leafValues>
            -1.8969555199146271e-01 4.3158820271492004e-01</leafValues></_>
        <_>
          <internalNodes>
            0 -1 454 -1.6997999045997858e-04</internalNodes>
          <leafValues>
            -3.6878970265388489e-01 1.6520337760448456e-01</leafValues></_>
        <_>
          <internalNodes>
            0 -1 454 2.1628728427458555e-04</internalNodes>
          <leafValues>
            1.1650127917528152e-01 -4.9914780259132385e-01</leafValues></_>
        <_>
          <internalNodes>
            0 -1 28 2.9311738908290863e-03</internalNodes>
          <leafValues>
            -1.1720156669616699e-01 3.5031449794769287e-01</leafValues></_>
        <_>
          <internalNodes>
            0 -1 92 -5.8804076164960861e-02</internalNodes>
          <leafValues>
            4.3321600556373596e-01 -8.4824696183204651e-02</leafValues></_>
        <_>
          <internalNodes>
            0 -1 308 1.6100056469440460e-02</internalNodes>
          <leafValues>
            -1.7093305289745331e-01 4.2831969261169434e-01</leafValues></_>
        <_>
          <internalNodes>
            0 -1 101 -3.1725466251373291e-02</internalNodes>
          <leafValues>
            4.9141031503677368e-01 -4.0487512946128845e-02</leafValues></_>
        <_>
          <internalNodes>
            0 -1 334 -2.3221712035592645e-04</internalNodes>
          <leafValues>
            -3.4017360210418701e-01 1.2088928371667862e-01</leafValues></_>
        <_>
          <internalNodes>
            0 -1 173 -1.6708367038518190e-03</internalNodes>
          <leafValues>
            2.6788228750228882e-01 -1.4684772491455078e-01</leafValues></_>
        <_>
          <internalNodes>
            0 -1 258 5.3208076860755682e-04</internalNodes>
          <leafValues>
            -1.6518637537956238e-01 2.5762754678726196e-01</leafValues></_>
        <_>
          <internalNodes>
            0 -1 419 -1.0157648939639330e-03</internalNodes>
          <leafValues>
            -5.6175148487091064e-01 7.2454780340194702e-02</leafValues></_>
        <_>
          <internalNodes>
